digraph Tree {
node [shape=box, style="filled, rounded", color="black", fontname="helvetica"] ;
edge [fontname="helvetica"] ;
0 [label=<Feature_1 &le; 2.5<br/>gini = 0.315<br/>samples = 70027<br/>value = [56333, 13694]<br/>class = [0. 1.]>, fillcolor="#eba069"] ;
1 [label=<gini = 0.0<br/>samples = 28130<br/>value = [28130, 0]<br/>class = [0. 1.]>, fillcolor="#e58139"] ;
0 -> 1 [labeldistance=2.5, labelangle=45, headlabel="True"] ;
2 [label=<Feature_1 &le; 10.5<br/>gini = 0.44<br/>samples = 41897<br/>value = [28203, 13694]<br/>class = [0. 1.]>, fillcolor="#f2be99"] ;
0 -> 2 [labeldistance=2.5, labelangle=-45, headlabel="False"] ;
3 [label=<Feature_5 &le; 0.5<br/>gini = 0.495<br/>samples = 21101<br/>value = [11554, 9547]<br/>class = [0. 1.]>, fillcolor="#fae9dd"] ;
2 -> 3 ;
4 [label=<Feature_7 &le; 4.0<br/>gini = 0.467<br/>samples = 8505<br/>value = [3155, 5350]<br/>class = [0. 1.]>, fillcolor="#aed7f4"] ;
3 -> 4 ;
5 [label=<Feature_18 &le; 14.0<br/>gini = 0.369<br/>samples = 5010<br/>value = [1225, 3785]<br/>class = [0. 1.]>, fillcolor="#79bded"] ;
4 -> 5 ;
6 [label=<Feature_15 &le; 14.0<br/>gini = 0.29<br/>samples = 4001<br/>value = [703, 3298]<br/>class = [0. 1.]>, fillcolor="#63b2eb"] ;
5 -> 6 ;
7 [label=<Feature_7 &le; 1.5<br/>gini = 0.197<br/>samples = 3210<br/>value = [355, 2855]<br/>class = [0. 1.]>, fillcolor="#52a9e8"] ;
6 -> 7 ;
8 [label=<Feature_14 &le; 13.0<br/>gini = 0.094<br/>samples = 2190<br/>value = [108, 2082]<br/>class = [0. 1.]>, fillcolor="#43a2e6"] ;
7 -> 8 ;
9 [label=<Feature_16 &le; 2.5<br/>gini = 0.05<br/>samples = 1769<br/>value = [45, 1724]<br/>class = [0. 1.]>, fillcolor="#3ea0e6"] ;
8 -> 9 ;
10 [label=<Feature_16 &le; 0.5<br/>gini = 0.095<br/>samples = 900<br/>value = [45, 855]<br/>class = [0. 1.]>, fillcolor="#43a2e6"] ;
9 -> 10 ;
11 [label=<Feature_11 &le; 14.5<br/>gini = 0.006<br/>samples = 675<br/>value = [2, 673]<br/>class = [0. 1.]>, fillcolor="#3a9de5"] ;
10 -> 11 ;
12 [label=<gini = 0.0<br/>samples = 534<br/>value = [0, 534]<br/>class = [0. 1.]>, fillcolor="#399de5"] ;
11 -> 12 ;
13 [label=<Feature_3 &le; 3.5<br/>gini = 0.028<br/>samples = 141<br/>value = [2, 139]<br/>class = [0. 1.]>, fillcolor="#3c9ee5"] ;
11 -> 13 ;
14 [label=<Feature_4 &le; 15.5<br/>gini = 0.085<br/>samples = 45<br/>value = [2, 43]<br/>class = [0. 1.]>, fillcolor="#42a2e6"] ;
13 -> 14 ;
15 [label=<gini = 0.0<br/>samples = 29<br/>value = [0, 29]<br/>class = [0. 1.]>, fillcolor="#399de5"] ;
14 -> 15 ;
16 [label=<Feature_9 &le; 12.0<br/>gini = 0.219<br/>samples = 16<br/>value = [2, 14]<br/>class = [0. 1.]>, fillcolor="#55abe9"] ;
14 -> 16 ;
17 [label=<gini = 0.0<br/>samples = 10<br/>value = [0, 10]<br/>class = [0. 1.]>, fillcolor="#399de5"] ;
16 -> 17 ;
18 [label=<Feature_15 &le; 2.0<br/>gini = 0.444<br/>samples = 6<br/>value = [2, 4]<br/>class = [0. 1.]>, fillcolor="#9ccef2"] ;
16 -> 18 ;
19 [label=<Feature_10 &le; 7.0<br/>gini = 0.444<br/>samples = 3<br/>value = [2, 1]<br/>class = [0. 1.]>, fillcolor="#f2c09c"] ;
18 -> 19 ;
20 [label=<gini = 0.0<br/>samples = 2<br/>value = [2, 0]<br/>class = [0. 1.]>, fillcolor="#e58139"] ;
19 -> 20 ;
21 [label=<gini = 0.0<br/>samples = 1<br/>value = [0, 1]<br/>class = [0. 1.]>, fillcolor="#399de5"] ;
19 -> 21 ;
22 [label=<gini = 0.0<br/>samples = 3<br/>value = [0, 3]<br/>class = [0. 1.]>, fillcolor="#399de5"] ;
18 -> 22 ;
23 [label=<gini = 0.0<br/>samples = 96<br/>value = [0, 96]<br/>class = [0. 1.]>, fillcolor="#399de5"] ;
13 -> 23 ;
24 [label=<Feature_14 &le; 7.0<br/>gini = 0.309<br/>samples = 225<br/>value = [43, 182]<br/>class = [0. 1.]>, fillcolor="#68b4eb"] ;
10 -> 24 ;
25 [label=<Feature_10 &le; 7.0<br/>gini = 0.202<br/>samples = 167<br/>value = [19, 148]<br/>class = [0. 1.]>, fillcolor="#52aae8"] ;
24 -> 25 ;
26 [label=<Feature_18 &le; 8.0<br/>gini = 0.385<br/>samples = 73<br/>value = [19, 54]<br/>class = [0. 1.]>, fillcolor="#7fbfee"] ;
25 -> 26 ;
27 [label=<Feature_15 &le; 8.0<br/>gini = 0.241<br/>samples = 50<br/>value = [7, 43]<br/>class = [0. 1.]>, fillcolor="#59ade9"] ;
26 -> 27 ;
28 [label=<Feature_2 &le; 16.0<br/>gini = 0.133<br/>samples = 42<br/>value = [3, 39]<br/>class = [0. 1.]>, fillcolor="#48a5e7"] ;
27 -> 28 ;
29 [label=<Feature_4 &le; 7.0<br/>gini = 0.059<br/>samples = 33<br/>value = [1, 32]<br/>class = [0. 1.]>, fillcolor="#3fa0e6"] ;
28 -> 29 ;
30 [label=<Feature_9 &le; 6.5<br/>gini = 0.18<br/>samples = 10<br/>value = [1, 9]<br/>class = [0. 1.]>, fillcolor="#4fa8e8"] ;
29 -> 30 ;
31 [label=<gini = 0.0<br/>samples = 7<br/>value = [0, 7]<br/>class = [0. 1.]>, fillcolor="#399de5"] ;
30 -> 31 ;
32 [label=<Feature_19 &le; 1.0<br/>gini = 0.444<br/>samples = 3<br/>value = [1, 2]<br/>class = [0. 1.]>, fillcolor="#9ccef2"] ;
30 -> 32 ;
33 [label=<gini = 0.0<br/>samples = 1<br/>value = [1, 0]<br/>class = [0. 1.]>, fillcolor="#e58139"] ;
32 -> 33 ;
34 [label=<gini = 0.0<br/>samples = 2<br/>value = [0, 2]<br/>class = [0. 1.]>, fillcolor="#399de5"] ;
32 -> 34 ;
35 [label=<gini = 0.0<br/>samples = 23<br/>value = [0, 23]<br/>class = [0. 1.]>, fillcolor="#399de5"] ;
29 -> 35 ;
36 [label=<Feature_13 &le; 1.0<br/>gini = 0.346<br/>samples = 9<br/>value = [2, 7]<br/>class = [0. 1.]>, fillcolor="#72b9ec"] ;
28 -> 36 ;
37 [label=<gini = 0.0<br/>samples = 1<br/>value = [1, 0]<br/>class = [0. 1.]>, fillcolor="#e58139"] ;
36 -> 37 ;
38 [label=<Feature_20 &le; 10.0<br/>gini = 0.219<br/>samples = 8<br/>value = [1, 7]<br/>class = [0. 1.]>, fillcolor="#55abe9"] ;
36 -> 38 ;
39 [label=<gini = 0.0<br/>samples = 6<br/>value = [0, 6]<br/>class = [0. 1.]>, fillcolor="#399de5"] ;
38 -> 39 ;
40 [label=<Feature_8 &le; 6.5<br/>gini = 0.5<br/>samples = 2<br/>value = [1, 1]<br/>class = [0. 1.]>, fillcolor="#ffffff"] ;
38 -> 40 ;
41 [label=<gini = 0.0<br/>samples = 1<br/>value = [1, 0]<br/>class = [0. 1.]>, fillcolor="#e58139"] ;
40 -> 41 ;
42 [label=<gini = 0.0<br/>samples = 1<br/>value = [0, 1]<br/>class = [0. 1.]>, fillcolor="#399de5"] ;
40 -> 42 ;
43 [label=<Feature_14 &le; 2.0<br/>gini = 0.5<br/>samples = 8<br/>value = [4, 4]<br/>class = [0. 1.]>, fillcolor="#ffffff"] ;
27 -> 43 ;
44 [label=<Feature_4 &le; 17.0<br/>gini = 0.32<br/>samples = 5<br/>value = [4, 1]<br/>class = [0. 1.]>, fillcolor="#eca06a"] ;
43 -> 44 ;
45 [label=<gini = 0.0<br/>samples = 4<br/>value = [4, 0]<br/>class = [0. 1.]>, fillcolor="#e58139"] ;
44 -> 45 ;
46 [label=<gini = 0.0<br/>samples = 1<br/>value = [0, 1]<br/>class = [0. 1.]>, fillcolor="#399de5"] ;
44 -> 46 ;
47 [label=<gini = 0.0<br/>samples = 3<br/>value = [0, 3]<br/>class = [0. 1.]>, fillcolor="#399de5"] ;
43 -> 47 ;
48 [label=<Feature_2 &le; 19.5<br/>gini = 0.499<br/>samples = 23<br/>value = [12, 11]<br/>class = [0. 1.]>, fillcolor="#fdf5ef"] ;
26 -> 48 ;
49 [label=<Feature_15 &le; 2.0<br/>gini = 0.444<br/>samples = 18<br/>value = [12, 6]<br/>class = [0. 1.]>, fillcolor="#f2c09c"] ;
48 -> 49 ;
50 [label=<Feature_2 &le; 11.0<br/>gini = 0.18<br/>samples = 10<br/>value = [9, 1]<br/>class = [0. 1.]>, fillcolor="#e88f4f"] ;
49 -> 50 ;
51 [label=<gini = 0.0<br/>samples = 8<br/>value = [8, 0]<br/>class = [0. 1.]>, fillcolor="#e58139"] ;
50 -> 51 ;
52 [label=<Feature_11 &le; 1.5<br/>gini = 0.5<br/>samples = 2<br/>value = [1, 1]<br/>class = [0. 1.]>, fillcolor="#ffffff"] ;
50 -> 52 ;
53 [label=<gini = 0.0<br/>samples = 1<br/>value = [1, 0]<br/>class = [0. 1.]>, fillcolor="#e58139"] ;
52 -> 53 ;
54 [label=<gini = 0.0<br/>samples = 1<br/>value = [0, 1]<br/>class = [0. 1.]>, fillcolor="#399de5"] ;
52 -> 54 ;
55 [label=<Feature_19 &le; 4.5<br/>gini = 0.469<br/>samples = 8<br/>value = [3, 5]<br/>class = [0. 1.]>, fillcolor="#b0d8f5"] ;
49 -> 55 ;
56 [label=<gini = 0.0<br/>samples = 4<br/>value = [0, 4]<br/>class = [0. 1.]>, fillcolor="#399de5"] ;
55 -> 56 ;
57 [label=<Feature_14 &le; 2.0<br/>gini = 0.375<br/>samples = 4<br/>value = [3, 1]<br/>class = [0. 1.]>, fillcolor="#eeab7b"] ;
55 -> 57 ;
58 [label=<gini = 0.0<br/>samples = 3<br/>value = [3, 0]<br/>class = [0. 1.]>, fillcolor="#e58139"] ;
57 -> 58 ;
59 [label=<gini = 0.0<br/>samples = 1<br/>value = [0, 1]<br/>class = [0. 1.]>, fillcolor="#399de5"] ;
57 -> 59 ;
60 [label=<gini = 0.0<br/>samples = 5<br/>value = [0, 5]<br/>class = [0. 1.]>, fillcolor="#399de5"] ;
48 -> 60 ;
61 [label=<gini = 0.0<br/>samples = 94<br/>value = [0, 94]<br/>class = [0. 1.]>, fillcolor="#399de5"] ;
25 -> 61 ;
62 [label=<Feature_12 &le; 7.5<br/>gini = 0.485<br/>samples = 58<br/>value = [24, 34]<br/>class = [0. 1.]>, fillcolor="#c5e2f7"] ;
24 -> 62 ;
63 [label=<Feature_4 &le; 17.0<br/>gini = 0.34<br/>samples = 23<br/>value = [18, 5]<br/>class = [0. 1.]>, fillcolor="#eca470"] ;
62 -> 63 ;
64 [label=<Feature_20 &le; 5.5<br/>gini = 0.255<br/>samples = 20<br/>value = [17, 3]<br/>class = [0. 1.]>, fillcolor="#ea975c"] ;
63 -> 64 ;
65 [label=<Feature_11 &le; 6.0<br/>gini = 0.375<br/>samples = 12<br/>value = [9, 3]<br/>class = [0. 1.]>, fillcolor="#eeab7b"] ;
64 -> 65 ;
66 [label=<Feature_11 &le; 1.5<br/>gini = 0.49<br/>samples = 7<br/>value = [4, 3]<br/>class = [0. 1.]>, fillcolor="#f8e0ce"] ;
65 -> 66 ;
67 [label=<Feature_4 &le; 8.0<br/>gini = 0.32<br/>samples = 5<br/>value = [4, 1]<br/>class = [0. 1.]>, fillcolor="#eca06a"] ;
66 -> 67 ;
68 [label=<gini = 0.0<br/>samples = 4<br/>value = [4, 0]<br/>class = [0. 1.]>, fillcolor="#e58139"] ;
67 -> 68 ;
69 [label=<gini = 0.0<br/>samples = 1<br/>value = [0, 1]<br/>class = [0. 1.]>, fillcolor="#399de5"] ;
67 -> 69 ;
70 [label=<gini = 0.0<br/>samples = 2<br/>value = [0, 2]<br/>class = [0. 1.]>, fillcolor="#399de5"] ;
66 -> 70 ;
71 [label=<gini = 0.0<br/>samples = 5<br/>value = [5, 0]<br/>class = [0. 1.]>, fillcolor="#e58139"] ;
65 -> 71 ;
72 [label=<gini = 0.0<br/>samples = 8<br/>value = [8, 0]<br/>class = [0. 1.]>, fillcolor="#e58139"] ;
64 -> 72 ;
73 [label=<Feature_17 &le; 3.0<br/>gini = 0.444<br/>samples = 3<br/>value = [1, 2]<br/>class = [0. 1.]>, fillcolor="#9ccef2"] ;
63 -> 73 ;
74 [label=<gini = 0.0<br/>samples = 1<br/>value = [1, 0]<br/>class = [0. 1.]>, fillcolor="#e58139"] ;
73 -> 74 ;
75 [label=<gini = 0.0<br/>samples = 2<br/>value = [0, 2]<br/>class = [0. 1.]>, fillcolor="#399de5"] ;
73 -> 75 ;
76 [label=<Feature_15 &le; 8.0<br/>gini = 0.284<br/>samples = 35<br/>value = [6, 29]<br/>class = [0. 1.]>, fillcolor="#62b1ea"] ;
62 -> 76 ;
77 [label=<gini = 0.0<br/>samples = 25<br/>value = [0, 25]<br/>class = [0. 1.]>, fillcolor="#399de5"] ;
76 -> 77 ;
78 [label=<Feature_12 &le; 16.5<br/>gini = 0.48<br/>samples = 10<br/>value = [6, 4]<br/>class = [0. 1.]>, fillcolor="#f6d5bd"] ;
76 -> 78 ;
79 [label=<gini = 0.0<br/>samples = 2<br/>value = [0, 2]<br/>class = [0. 1.]>, fillcolor="#399de5"] ;
78 -> 79 ;
80 [label=<Feature_4 &le; 17.0<br/>gini = 0.375<br/>samples = 8<br/>value = [6, 2]<br/>class = [0. 1.]>, fillcolor="#eeab7b"] ;
78 -> 80 ;
81 [label=<gini = 0.0<br/>samples = 6<br/>value = [6, 0]<br/>class = [0. 1.]>, fillcolor="#e58139"] ;
80 -> 81 ;
82 [label=<gini = 0.0<br/>samples = 2<br/>value = [0, 2]<br/>class = [0. 1.]>, fillcolor="#399de5"] ;
80 -> 82 ;
83 [label=<gini = 0.0<br/>samples = 869<br/>value = [0, 869]<br/>class = [0. 1.]>, fillcolor="#399de5"] ;
9 -> 83 ;
84 [label=<Feature_10 &le; 7.0<br/>gini = 0.255<br/>samples = 421<br/>value = [63, 358]<br/>class = [0. 1.]>, fillcolor="#5caeea"] ;
8 -> 84 ;
85 [label=<Feature_12 &le; 7.5<br/>gini = 0.469<br/>samples = 168<br/>value = [63, 105]<br/>class = [0. 1.]>, fillcolor="#b0d8f5"] ;
84 -> 85 ;
86 [label=<Feature_16 &le; 2.5<br/>gini = 0.088<br/>samples = 65<br/>value = [3, 62]<br/>class = [0. 1.]>, fillcolor="#43a2e6"] ;
85 -> 86 ;
87 [label=<Feature_15 &le; 2.0<br/>gini = 0.175<br/>samples = 31<br/>value = [3, 28]<br/>class = [0. 1.]>, fillcolor="#4ea8e8"] ;
86 -> 87 ;
88 [label=<Feature_18 &le; 2.0<br/>gini = 0.305<br/>samples = 16<br/>value = [3, 13]<br/>class = [0. 1.]>, fillcolor="#67b4eb"] ;
87 -> 88 ;
89 [label=<Feature_4 &le; 17.0<br/>gini = 0.49<br/>samples = 7<br/>value = [3, 4]<br/>class = [0. 1.]>, fillcolor="#cee6f8"] ;
88 -> 89 ;
90 [label=<Feature_11 &le; 6.0<br/>gini = 0.375<br/>samples = 4<br/>value = [3, 1]<br/>class = [0. 1.]>, fillcolor="#eeab7b"] ;
89 -> 90 ;
91 [label=<gini = 0.0<br/>samples = 3<br/>value = [3, 0]<br/>class = [0. 1.]>, fillcolor="#e58139"] ;
90 -> 91 ;
92 [label=<gini = 0.0<br/>samples = 1<br/>value = [0, 1]<br/>class = [0. 1.]>, fillcolor="#399de5"] ;
90 -> 92 ;
93 [label=<gini = 0.0<br/>samples = 3<br/>value = [0, 3]<br/>class = [0. 1.]>, fillcolor="#399de5"] ;
89 -> 93 ;
94 [label=<gini = 0.0<br/>samples = 9<br/>value = [0, 9]<br/>class = [0. 1.]>, fillcolor="#399de5"] ;
88 -> 94 ;
95 [label=<gini = 0.0<br/>samples = 15<br/>value = [0, 15]<br/>class = [0. 1.]>, fillcolor="#399de5"] ;
87 -> 95 ;
96 [label=<gini = 0.0<br/>samples = 34<br/>value = [0, 34]<br/>class = [0. 1.]>, fillcolor="#399de5"] ;
86 -> 96 ;
97 [label=<Feature_18 &le; 2.0<br/>gini = 0.486<br/>samples = 103<br/>value = [60, 43]<br/>class = [0. 1.]>, fillcolor="#f8dbc7"] ;
85 -> 97 ;
98 [label=<Feature_15 &le; 2.0<br/>gini = 0.334<br/>samples = 52<br/>value = [41, 11]<br/>class = [0. 1.]>, fillcolor="#eca36e"] ;
97 -> 98 ;
99 [label=<gini = 0.0<br/>samples = 26<br/>value = [26, 0]<br/>class = [0. 1.]>, fillcolor="#e58139"] ;
98 -> 99 ;
100 [label=<Feature_12 &le; 16.5<br/>gini = 0.488<br/>samples = 26<br/>value = [15, 11]<br/>class = [0. 1.]>, fillcolor="#f8ddca"] ;
98 -> 100 ;
101 [label=<Feature_15 &le; 8.0<br/>gini = 0.388<br/>samples = 19<br/>value = [14, 5]<br/>class = [0. 1.]>, fillcolor="#eeae80"] ;
100 -> 101 ;
102 [label=<gini = 0.0<br/>samples = 12<br/>value = [12, 0]<br/>class = [0. 1.]>, fillcolor="#e58139"] ;
101 -> 102 ;
103 [label=<Feature_2 &le; 7.5<br/>gini = 0.408<br/>samples = 7<br/>value = [2, 5]<br/>class = [0. 1.]>, fillcolor="#88c4ef"] ;
101 -> 103 ;
104 [label=<gini = 0.0<br/>samples = 2<br/>value = [2, 0]<br/>class = [0. 1.]>, fillcolor="#e58139"] ;
103 -> 104 ;
105 [label=<gini = 0.0<br/>samples = 5<br/>value = [0, 5]<br/>class = [0. 1.]>, fillcolor="#399de5"] ;
103 -> 105 ;
106 [label=<Feature_16 &le; 2.5<br/>gini = 0.245<br/>samples = 7<br/>value = [1, 6]<br/>class = [0. 1.]>, fillcolor="#5aade9"] ;
100 -> 106 ;
107 [label=<gini = 0.0<br/>samples = 5<br/>value = [0, 5]<br/>class = [0. 1.]>, fillcolor="#399de5"] ;
106 -> 107 ;
108 [label=<Feature_3 &le; 3.5<br/>gini = 0.5<br/>samples = 2<br/>value = [1, 1]<br/>class = [0. 1.]>, fillcolor="#ffffff"] ;
106 -> 108 ;
109 [label=<gini = 0.0<br/>samples = 1<br/>value = [0, 1]<br/>class = [0. 1.]>, fillcolor="#399de5"] ;
108 -> 109 ;
110 [label=<gini = 0.0<br/>samples = 1<br/>value = [1, 0]<br/>class = [0. 1.]>, fillcolor="#e58139"] ;
108 -> 110 ;
111 [label=<Feature_12 &le; 16.5<br/>gini = 0.468<br/>samples = 51<br/>value = [19, 32]<br/>class = [0. 1.]>, fillcolor="#afd7f4"] ;
97 -> 111 ;
112 [label=<Feature_18 &le; 8.0<br/>gini = 0.33<br/>samples = 24<br/>value = [5, 19]<br/>class = [0. 1.]>, fillcolor="#6db7ec"] ;
111 -> 112 ;
113 [label=<gini = 0.0<br/>samples = 12<br/>value = [0, 12]<br/>class = [0. 1.]>, fillcolor="#399de5"] ;
112 -> 113 ;
114 [label=<Feature_9 &le; 1.0<br/>gini = 0.486<br/>samples = 12<br/>value = [5, 7]<br/>class = [0. 1.]>, fillcolor="#c6e3f8"] ;
112 -> 114 ;
115 [label=<gini = 0.0<br/>samples = 3<br/>value = [3, 0]<br/>class = [0. 1.]>, fillcolor="#e58139"] ;
114 -> 115 ;
116 [label=<Feature_3 &le; 3.5<br/>gini = 0.346<br/>samples = 9<br/>value = [2, 7]<br/>class = [0. 1.]>, fillcolor="#72b9ec"] ;
114 -> 116 ;
117 [label=<Feature_16 &le; 9.0<br/>gini = 0.444<br/>samples = 3<br/>value = [2, 1]<br/>class = [0. 1.]>, fillcolor="#f2c09c"] ;
116 -> 117 ;
118 [label=<gini = 0.0<br/>samples = 2<br/>value = [2, 0]<br/>class = [0. 1.]>, fillcolor="#e58139"] ;
117 -> 118 ;
119 [label=<gini = 0.0<br/>samples = 1<br/>value = [0, 1]<br/>class = [0. 1.]>, fillcolor="#399de5"] ;
117 -> 119 ;
120 [label=<gini = 0.0<br/>samples = 6<br/>value = [0, 6]<br/>class = [0. 1.]>, fillcolor="#399de5"] ;
116 -> 120 ;
121 [label=<Feature_4 &le; 7.0<br/>gini = 0.499<br/>samples = 27<br/>value = [14, 13]<br/>class = [0. 1.]>, fillcolor="#fdf6f1"] ;
111 -> 121 ;
122 [label=<gini = 0.0<br/>samples = 7<br/>value = [7, 0]<br/>class = [0. 1.]>, fillcolor="#e58139"] ;
121 -> 122 ;
123 [label=<Feature_16 &le; 9.0<br/>gini = 0.455<br/>samples = 20<br/>value = [7, 13]<br/>class = [0. 1.]>, fillcolor="#a4d2f3"] ;
121 -> 123 ;
124 [label=<Feature_20 &le; 10.0<br/>gini = 0.496<br/>samples = 11<br/>value = [6, 5]<br/>class = [0. 1.]>, fillcolor="#fbeade"] ;
123 -> 124 ;
125 [label=<Feature_19 &le; 4.5<br/>gini = 0.408<br/>samples = 7<br/>value = [2, 5]<br/>class = [0. 1.]>, fillcolor="#88c4ef"] ;
124 -> 125 ;
126 [label=<Feature_15 &le; 2.0<br/>gini = 0.278<br/>samples = 6<br/>value = [1, 5]<br/>class = [0. 1.]>, fillcolor="#61b1ea"] ;
125 -> 126 ;
127 [label=<gini = 0.0<br/>samples = 1<br/>value = [1, 0]<br/>class = [0. 1.]>, fillcolor="#e58139"] ;
126 -> 127 ;
128 [label=<gini = 0.0<br/>samples = 5<br/>value = [0, 5]<br/>class = [0. 1.]>, fillcolor="#399de5"] ;
126 -> 128 ;
129 [label=<gini = 0.0<br/>samples = 1<br/>value = [1, 0]<br/>class = [0. 1.]>, fillcolor="#e58139"] ;
125 -> 129 ;
130 [label=<gini = 0.0<br/>samples = 4<br/>value = [4, 0]<br/>class = [0. 1.]>, fillcolor="#e58139"] ;
124 -> 130 ;
131 [label=<Feature_19 &le; 4.5<br/>gini = 0.198<br/>samples = 9<br/>value = [1, 8]<br/>class = [0. 1.]>, fillcolor="#52a9e8"] ;
123 -> 131 ;
132 [label=<gini = 0.0<br/>samples = 7<br/>value = [0, 7]<br/>class = [0. 1.]>, fillcolor="#399de5"] ;
131 -> 132 ;
133 [label=<Feature_13 &le; 4.5<br/>gini = 0.5<br/>samples = 2<br/>value = [1, 1]<br/>class = [0. 1.]>, fillcolor="#ffffff"] ;
131 -> 133 ;
134 [label=<gini = 0.0<br/>samples = 1<br/>value = [1, 0]<br/>class = [0. 1.]>, fillcolor="#e58139"] ;
133 -> 134 ;
135 [label=<gini = 0.0<br/>samples = 1<br/>value = [0, 1]<br/>class = [0. 1.]>, fillcolor="#399de5"] ;
133 -> 135 ;
136 [label=<gini = 0.0<br/>samples = 253<br/>value = [0, 253]<br/>class = [0. 1.]>, fillcolor="#399de5"] ;
84 -> 136 ;
137 [label=<Feature_3 &le; 3.5<br/>gini = 0.367<br/>samples = 1020<br/>value = [247, 773]<br/>class = [0. 1.]>, fillcolor="#78bced"] ;
7 -> 137 ;
138 [label=<Feature_11 &le; 1.5<br/>gini = 0.496<br/>samples = 389<br/>value = [178, 211]<br/>class = [0. 1.]>, fillcolor="#e0f0fb"] ;
137 -> 138 ;
139 [label=<Feature_19 &le; 4.5<br/>gini = 0.386<br/>samples = 176<br/>value = [130, 46]<br/>class = [0. 1.]>, fillcolor="#eeae7f"] ;
138 -> 139 ;
140 [label=<Feature_16 &le; 16.5<br/>gini = 0.017<br/>samples = 120<br/>value = [119, 1]<br/>class = [0. 1.]>, fillcolor="#e5823b"] ;
139 -> 140 ;
141 [label=<gini = 0.0<br/>samples = 104<br/>value = [104, 0]<br/>class = [0. 1.]>, fillcolor="#e58139"] ;
140 -> 141 ;
142 [label=<Feature_13 &le; 14.5<br/>gini = 0.117<br/>samples = 16<br/>value = [15, 1]<br/>class = [0. 1.]>, fillcolor="#e78946"] ;
140 -> 142 ;
143 [label=<gini = 0.0<br/>samples = 14<br/>value = [14, 0]<br/>class = [0. 1.]>, fillcolor="#e58139"] ;
142 -> 143 ;
144 [label=<Feature_18 &le; 2.0<br/>gini = 0.5<br/>samples = 2<br/>value = [1, 1]<br/>class = [0. 1.]>, fillcolor="#ffffff"] ;
142 -> 144 ;
145 [label=<gini = 0.0<br/>samples = 1<br/>value = [0, 1]<br/>class = [0. 1.]>, fillcolor="#399de5"] ;
144 -> 145 ;
146 [label=<gini = 0.0<br/>samples = 1<br/>value = [1, 0]<br/>class = [0. 1.]>, fillcolor="#e58139"] ;
144 -> 146 ;
147 [label=<Feature_17 &le; 3.0<br/>gini = 0.316<br/>samples = 56<br/>value = [11, 45]<br/>class = [0. 1.]>, fillcolor="#69b5eb"] ;
139 -> 147 ;
148 [label=<Feature_16 &le; 16.5<br/>gini = 0.453<br/>samples = 26<br/>value = [9, 17]<br/>class = [0. 1.]>, fillcolor="#a2d1f3"] ;
147 -> 148 ;
149 [label=<Feature_12 &le; 7.5<br/>gini = 0.397<br/>samples = 22<br/>value = [6, 16]<br/>class = [0. 1.]>, fillcolor="#83c2ef"] ;
148 -> 149 ;
150 [label=<Feature_18 &le; 8.0<br/>gini = 0.496<br/>samples = 11<br/>value = [5, 6]<br/>class = [0. 1.]>, fillcolor="#deeffb"] ;
149 -> 150 ;
151 [label=<Feature_20 &le; 5.5<br/>gini = 0.444<br/>samples = 9<br/>value = [3, 6]<br/>class = [0. 1.]>, fillcolor="#9ccef2"] ;
150 -> 151 ;
152 [label=<gini = 0.0<br/>samples = 4<br/>value = [0, 4]<br/>class = [0. 1.]>, fillcolor="#399de5"] ;
151 -> 152 ;
153 [label=<Feature_15 &le; 2.0<br/>gini = 0.48<br/>samples = 5<br/>value = [3, 2]<br/>class = [0. 1.]>, fillcolor="#f6d5bd"] ;
151 -> 153 ;
154 [label=<gini = 0.0<br/>samples = 2<br/>value = [2, 0]<br/>class = [0. 1.]>, fillcolor="#e58139"] ;
153 -> 154 ;
155 [label=<Feature_20 &le; 12.0<br/>gini = 0.444<br/>samples = 3<br/>value = [1, 2]<br/>class = [0. 1.]>, fillcolor="#9ccef2"] ;
153 -> 155 ;
156 [label=<gini = 0.0<br/>samples = 2<br/>value = [0, 2]<br/>class = [0. 1.]>, fillcolor="#399de5"] ;
155 -> 156 ;
157 [label=<gini = 0.0<br/>samples = 1<br/>value = [1, 0]<br/>class = [0. 1.]>, fillcolor="#e58139"] ;
155 -> 157 ;
158 [label=<gini = 0.0<br/>samples = 2<br/>value = [2, 0]<br/>class = [0. 1.]>, fillcolor="#e58139"] ;
150 -> 158 ;
159 [label=<Feature_16 &le; 14.5<br/>gini = 0.165<br/>samples = 11<br/>value = [1, 10]<br/>class = [0. 1.]>, fillcolor="#4da7e8"] ;
149 -> 159 ;
160 [label=<gini = 0.0<br/>samples = 10<br/>value = [0, 10]<br/>class = [0. 1.]>, fillcolor="#399de5"] ;
159 -> 160 ;
161 [label=<gini = 0.0<br/>samples = 1<br/>value = [1, 0]<br/>class = [0. 1.]>, fillcolor="#e58139"] ;
159 -> 161 ;
162 [label=<Feature_8 &le; 6.5<br/>gini = 0.375<br/>samples = 4<br/>value = [3, 1]<br/>class = [0. 1.]>, fillcolor="#eeab7b"] ;
148 -> 162 ;
163 [label=<gini = 0.0<br/>samples = 1<br/>value = [0, 1]<br/>class = [0. 1.]>, fillcolor="#399de5"] ;
162 -> 163 ;
164 [label=<gini = 0.0<br/>samples = 3<br/>value = [3, 0]<br/>class = [0. 1.]>, fillcolor="#e58139"] ;
162 -> 164 ;
165 [label=<Feature_14 &le; 13.0<br/>gini = 0.124<br/>samples = 30<br/>value = [2, 28]<br/>class = [0. 1.]>, fillcolor="#47a4e7"] ;
147 -> 165 ;
166 [label=<gini = 0.0<br/>samples = 23<br/>value = [0, 23]<br/>class = [0. 1.]>, fillcolor="#399de5"] ;
165 -> 166 ;
167 [label=<Feature_15 &le; 2.0<br/>gini = 0.408<br/>samples = 7<br/>value = [2, 5]<br/>class = [0. 1.]>, fillcolor="#88c4ef"] ;
165 -> 167 ;
168 [label=<Feature_10 &le; 7.0<br/>gini = 0.444<br/>samples = 3<br/>value = [2, 1]<br/>class = [0. 1.]>, fillcolor="#f2c09c"] ;
167 -> 168 ;
169 [label=<gini = 0.0<br/>samples = 2<br/>value = [2, 0]<br/>class = [0. 1.]>, fillcolor="#e58139"] ;
168 -> 169 ;
170 [label=<gini = 0.0<br/>samples = 1<br/>value = [0, 1]<br/>class = [0. 1.]>, fillcolor="#399de5"] ;
168 -> 170 ;
171 [label=<gini = 0.0<br/>samples = 4<br/>value = [0, 4]<br/>class = [0. 1.]>, fillcolor="#399de5"] ;
167 -> 171 ;
172 [label=<Feature_19 &le; 1.0<br/>gini = 0.349<br/>samples = 213<br/>value = [48, 165]<br/>class = [0. 1.]>, fillcolor="#73baed"] ;
138 -> 172 ;
173 [label=<Feature_8 &le; 6.5<br/>gini = 0.497<br/>samples = 80<br/>value = [37, 43]<br/>class = [0. 1.]>, fillcolor="#e3f1fb"] ;
172 -> 173 ;
174 [label=<Feature_11 &le; 6.0<br/>gini = 0.361<br/>samples = 38<br/>value = [29, 9]<br/>class = [0. 1.]>, fillcolor="#eda876"] ;
173 -> 174 ;
175 [label=<Feature_10 &le; 7.0<br/>gini = 0.5<br/>samples = 12<br/>value = [6, 6]<br/>class = [0. 1.]>, fillcolor="#ffffff"] ;
174 -> 175 ;
176 [label=<gini = 0.0<br/>samples = 3<br/>value = [3, 0]<br/>class = [0. 1.]>, fillcolor="#e58139"] ;
175 -> 176 ;
177 [label=<Feature_14 &le; 7.0<br/>gini = 0.444<br/>samples = 9<br/>value = [3, 6]<br/>class = [0. 1.]>, fillcolor="#9ccef2"] ;
175 -> 177 ;
178 [label=<gini = 0.0<br/>samples = 4<br/>value = [0, 4]<br/>class = [0. 1.]>, fillcolor="#399de5"] ;
177 -> 178 ;
179 [label=<Feature_2 &le; 10.0<br/>gini = 0.48<br/>samples = 5<br/>value = [3, 2]<br/>class = [0. 1.]>, fillcolor="#f6d5bd"] ;
177 -> 179 ;
180 [label=<Feature_4 &le; 15.0<br/>gini = 0.444<br/>samples = 3<br/>value = [1, 2]<br/>class = [0. 1.]>, fillcolor="#9ccef2"] ;
179 -> 180 ;
181 [label=<gini = 0.0<br/>samples = 2<br/>value = [0, 2]<br/>class = [0. 1.]>, fillcolor="#399de5"] ;
180 -> 181 ;
182 [label=<gini = 0.0<br/>samples = 1<br/>value = [1, 0]<br/>class = [0. 1.]>, fillcolor="#e58139"] ;
180 -> 182 ;
183 [label=<gini = 0.0<br/>samples = 2<br/>value = [2, 0]<br/>class = [0. 1.]>, fillcolor="#e58139"] ;
179 -> 183 ;
184 [label=<Feature_18 &le; 8.0<br/>gini = 0.204<br/>samples = 26<br/>value = [23, 3]<br/>class = [0. 1.]>, fillcolor="#e89153"] ;
174 -> 184 ;
185 [label=<gini = 0.0<br/>samples = 15<br/>value = [15, 0]<br/>class = [0. 1.]>, fillcolor="#e58139"] ;
184 -> 185 ;
186 [label=<Feature_10 &le; 7.0<br/>gini = 0.397<br/>samples = 11<br/>value = [8, 3]<br/>class = [0. 1.]>, fillcolor="#efb083"] ;
184 -> 186 ;
187 [label=<Feature_6 &le; 9.5<br/>gini = 0.375<br/>samples = 4<br/>value = [1, 3]<br/>class = [0. 1.]>, fillcolor="#7bbeee"] ;
186 -> 187 ;
188 [label=<gini = 0.0<br/>samples = 2<br/>value = [0, 2]<br/>class = [0. 1.]>, fillcolor="#399de5"] ;
187 -> 188 ;
189 [label=<Feature_17 &le; 3.0<br/>gini = 0.5<br/>samples = 2<br/>value = [1, 1]<br/>class = [0. 1.]>, fillcolor="#ffffff"] ;
187 -> 189 ;
190 [label=<gini = 0.0<br/>samples = 1<br/>value = [0, 1]<br/>class = [0. 1.]>, fillcolor="#399de5"] ;
189 -> 190 ;
191 [label=<gini = 0.0<br/>samples = 1<br/>value = [1, 0]<br/>class = [0. 1.]>, fillcolor="#e58139"] ;
189 -> 191 ;
192 [label=<gini = 0.0<br/>samples = 7<br/>value = [7, 0]<br/>class = [0. 1.]>, fillcolor="#e58139"] ;
186 -> 192 ;
193 [label=<Feature_18 &le; 2.0<br/>gini = 0.308<br/>samples = 42<br/>value = [8, 34]<br/>class = [0. 1.]>, fillcolor="#68b4eb"] ;
173 -> 193 ;
194 [label=<gini = 0.0<br/>samples = 22<br/>value = [0, 22]<br/>class = [0. 1.]>, fillcolor="#399de5"] ;
193 -> 194 ;
195 [label=<Feature_20 &le; 5.5<br/>gini = 0.48<br/>samples = 20<br/>value = [8, 12]<br/>class = [0. 1.]>, fillcolor="#bddef6"] ;
193 -> 195 ;
196 [label=<Feature_15 &le; 8.0<br/>gini = 0.298<br/>samples = 11<br/>value = [2, 9]<br/>class = [0. 1.]>, fillcolor="#65b3eb"] ;
195 -> 196 ;
197 [label=<gini = 0.0<br/>samples = 8<br/>value = [0, 8]<br/>class = [0. 1.]>, fillcolor="#399de5"] ;
196 -> 197 ;
198 [label=<Feature_12 &le; 9.0<br/>gini = 0.444<br/>samples = 3<br/>value = [2, 1]<br/>class = [0. 1.]>, fillcolor="#f2c09c"] ;
196 -> 198 ;
199 [label=<gini = 0.0<br/>samples = 1<br/>value = [0, 1]<br/>class = [0. 1.]>, fillcolor="#399de5"] ;
198 -> 199 ;
200 [label=<gini = 0.0<br/>samples = 2<br/>value = [2, 0]<br/>class = [0. 1.]>, fillcolor="#e58139"] ;
198 -> 200 ;
201 [label=<Feature_13 &le; 1.0<br/>gini = 0.444<br/>samples = 9<br/>value = [6, 3]<br/>class = [0. 1.]>, fillcolor="#f2c09c"] ;
195 -> 201 ;
202 [label=<Feature_11 &le; 6.0<br/>gini = 0.444<br/>samples = 3<br/>value = [1, 2]<br/>class = [0. 1.]>, fillcolor="#9ccef2"] ;
201 -> 202 ;
203 [label=<gini = 0.0<br/>samples = 1<br/>value = [1, 0]<br/>class = [0. 1.]>, fillcolor="#e58139"] ;
202 -> 203 ;
204 [label=<gini = 0.0<br/>samples = 2<br/>value = [0, 2]<br/>class = [0. 1.]>, fillcolor="#399de5"] ;
202 -> 204 ;
205 [label=<Feature_2 &le; 16.5<br/>gini = 0.278<br/>samples = 6<br/>value = [5, 1]<br/>class = [0. 1.]>, fillcolor="#ea9a61"] ;
201 -> 205 ;
206 [label=<gini = 0.0<br/>samples = 5<br/>value = [5, 0]<br/>class = [0. 1.]>, fillcolor="#e58139"] ;
205 -> 206 ;
207 [label=<gini = 0.0<br/>samples = 1<br/>value = [0, 1]<br/>class = [0. 1.]>, fillcolor="#399de5"] ;
205 -> 207 ;
208 [label=<Feature_14 &le; 7.0<br/>gini = 0.152<br/>samples = 133<br/>value = [11, 122]<br/>class = [0. 1.]>, fillcolor="#4ba6e7"] ;
172 -> 208 ;
209 [label=<Feature_13 &le; 14.5<br/>gini = 0.027<br/>samples = 72<br/>value = [1, 71]<br/>class = [0. 1.]>, fillcolor="#3c9ee5"] ;
208 -> 209 ;
210 [label=<gini = 0.0<br/>samples = 58<br/>value = [0, 58]<br/>class = [0. 1.]>, fillcolor="#399de5"] ;
209 -> 210 ;
211 [label=<Feature_14 &le; 2.0<br/>gini = 0.133<br/>samples = 14<br/>value = [1, 13]<br/>class = [0. 1.]>, fillcolor="#48a5e7"] ;
209 -> 211 ;
212 [label=<Feature_8 &le; 6.5<br/>gini = 0.444<br/>samples = 3<br/>value = [1, 2]<br/>class = [0. 1.]>, fillcolor="#9ccef2"] ;
211 -> 212 ;
213 [label=<gini = 0.0<br/>samples = 1<br/>value = [1, 0]<br/>class = [0. 1.]>, fillcolor="#e58139"] ;
212 -> 213 ;
214 [label=<gini = 0.0<br/>samples = 2<br/>value = [0, 2]<br/>class = [0. 1.]>, fillcolor="#399de5"] ;
212 -> 214 ;
215 [label=<gini = 0.0<br/>samples = 11<br/>value = [0, 11]<br/>class = [0. 1.]>, fillcolor="#399de5"] ;
211 -> 215 ;
216 [label=<Feature_10 &le; 7.0<br/>gini = 0.274<br/>samples = 61<br/>value = [10, 51]<br/>class = [0. 1.]>, fillcolor="#60b0ea"] ;
208 -> 216 ;
217 [label=<Feature_13 &le; 1.0<br/>gini = 0.469<br/>samples = 16<br/>value = [6, 10]<br/>class = [0. 1.]>, fillcolor="#b0d8f5"] ;
216 -> 217 ;
218 [label=<Feature_9 &le; 6.5<br/>gini = 0.444<br/>samples = 6<br/>value = [4, 2]<br/>class = [0. 1.]>, fillcolor="#f2c09c"] ;
217 -> 218 ;
219 [label=<gini = 0.0<br/>samples = 4<br/>value = [4, 0]<br/>class = [0. 1.]>, fillcolor="#e58139"] ;
218 -> 219 ;
220 [label=<gini = 0.0<br/>samples = 2<br/>value = [0, 2]<br/>class = [0. 1.]>, fillcolor="#399de5"] ;
218 -> 220 ;
221 [label=<Feature_14 &le; 13.0<br/>gini = 0.32<br/>samples = 10<br/>value = [2, 8]<br/>class = [0. 1.]>, fillcolor="#6ab6ec"] ;
217 -> 221 ;
222 [label=<gini = 0.0<br/>samples = 7<br/>value = [0, 7]<br/>class = [0. 1.]>, fillcolor="#399de5"] ;
221 -> 222 ;
223 [label=<Feature_12 &le; 7.5<br/>gini = 0.444<br/>samples = 3<br/>value = [2, 1]<br/>class = [0. 1.]>, fillcolor="#f2c09c"] ;
221 -> 223 ;
224 [label=<gini = 0.0<br/>samples = 1<br/>value = [0, 1]<br/>class = [0. 1.]>, fillcolor="#399de5"] ;
223 -> 224 ;
225 [label=<gini = 0.0<br/>samples = 2<br/>value = [2, 0]<br/>class = [0. 1.]>, fillcolor="#e58139"] ;
223 -> 225 ;
226 [label=<Feature_15 &le; 8.0<br/>gini = 0.162<br/>samples = 45<br/>value = [4, 41]<br/>class = [0. 1.]>, fillcolor="#4ca7e8"] ;
216 -> 226 ;
227 [label=<Feature_20 &le; 12.0<br/>gini = 0.054<br/>samples = 36<br/>value = [1, 35]<br/>class = [0. 1.]>, fillcolor="#3fa0e6"] ;
226 -> 227 ;
228 [label=<gini = 0.0<br/>samples = 30<br/>value = [0, 30]<br/>class = [0. 1.]>, fillcolor="#399de5"] ;
227 -> 228 ;
229 [label=<Feature_15 &le; 2.0<br/>gini = 0.278<br/>samples = 6<br/>value = [1, 5]<br/>class = [0. 1.]>, fillcolor="#61b1ea"] ;
227 -> 229 ;
230 [label=<gini = 0.0<br/>samples = 4<br/>value = [0, 4]<br/>class = [0. 1.]>, fillcolor="#399de5"] ;
229 -> 230 ;
231 [label=<Feature_2 &le; 4.5<br/>gini = 0.5<br/>samples = 2<br/>value = [1, 1]<br/>class = [0. 1.]>, fillcolor="#ffffff"] ;
229 -> 231 ;
232 [label=<gini = 0.0<br/>samples = 1<br/>value = [1, 0]<br/>class = [0. 1.]>, fillcolor="#e58139"] ;
231 -> 232 ;
233 [label=<gini = 0.0<br/>samples = 1<br/>value = [0, 1]<br/>class = [0. 1.]>, fillcolor="#399de5"] ;
231 -> 233 ;
234 [label=<Feature_14 &le; 13.0<br/>gini = 0.444<br/>samples = 9<br/>value = [3, 6]<br/>class = [0. 1.]>, fillcolor="#9ccef2"] ;
226 -> 234 ;
235 [label=<Feature_4 &le; 16.5<br/>gini = 0.375<br/>samples = 4<br/>value = [3, 1]<br/>class = [0. 1.]>, fillcolor="#eeab7b"] ;
234 -> 235 ;
236 [label=<gini = 0.0<br/>samples = 3<br/>value = [3, 0]<br/>class = [0. 1.]>, fillcolor="#e58139"] ;
235 -> 236 ;
237 [label=<gini = 0.0<br/>samples = 1<br/>value = [0, 1]<br/>class = [0. 1.]>, fillcolor="#399de5"] ;
235 -> 237 ;
238 [label=<gini = 0.0<br/>samples = 5<br/>value = [0, 5]<br/>class = [0. 1.]>, fillcolor="#399de5"] ;
234 -> 238 ;
239 [label=<Feature_14 &le; 13.0<br/>gini = 0.195<br/>samples = 631<br/>value = [69, 562]<br/>class = [0. 1.]>, fillcolor="#51a9e8"] ;
137 -> 239 ;
240 [label=<Feature_19 &le; 4.5<br/>gini = 0.14<br/>samples = 500<br/>value = [38, 462]<br/>class = [0. 1.]>, fillcolor="#49a5e7"] ;
239 -> 240 ;
241 [label=<Feature_11 &le; 6.0<br/>gini = 0.191<br/>samples = 346<br/>value = [37, 309]<br/>class = [0. 1.]>, fillcolor="#51a9e8"] ;
240 -> 241 ;
242 [label=<Feature_3 &le; 9.0<br/>gini = 0.259<br/>samples = 216<br/>value = [33, 183]<br/>class = [0. 1.]>, fillcolor="#5dafea"] ;
241 -> 242 ;
243 [label=<Feature_19 &le; 1.0<br/>gini = 0.354<br/>samples = 100<br/>value = [23, 77]<br/>class = [0. 1.]>, fillcolor="#74baed"] ;
242 -> 243 ;
244 [label=<Feature_2 &le; 3.0<br/>gini = 0.124<br/>samples = 60<br/>value = [4, 56]<br/>class = [0. 1.]>, fillcolor="#47a4e7"] ;
243 -> 244 ;
245 [label=<gini = 0.0<br/>samples = 24<br/>value = [0, 24]<br/>class = [0. 1.]>, fillcolor="#399de5"] ;
244 -> 245 ;
246 [label=<Feature_2 &le; 7.5<br/>gini = 0.198<br/>samples = 36<br/>value = [4, 32]<br/>class = [0. 1.]>, fillcolor="#52a9e8"] ;
244 -> 246 ;
247 [label=<Feature_16 &le; 9.0<br/>gini = 0.42<br/>samples = 10<br/>value = [3, 7]<br/>class = [0. 1.]>, fillcolor="#8ec7f0"] ;
246 -> 247 ;
248 [label=<gini = 0.0<br/>samples = 4<br/>value = [0, 4]<br/>class = [0. 1.]>, fillcolor="#399de5"] ;
247 -> 248 ;
249 [label=<Feature_11 &le; 1.5<br/>gini = 0.5<br/>samples = 6<br/>value = [3, 3]<br/>class = [0. 1.]>, fillcolor="#ffffff"] ;
247 -> 249 ;
250 [label=<Feature_18 &le; 6.0<br/>gini = 0.375<br/>samples = 4<br/>value = [1, 3]<br/>class = [0. 1.]>, fillcolor="#7bbeee"] ;
249 -> 250 ;
251 [label=<gini = 0.0<br/>samples = 1<br/>value = [1, 0]<br/>class = [0. 1.]>, fillcolor="#e58139"] ;
250 -> 251 ;
252 [label=<gini = 0.0<br/>samples = 3<br/>value = [0, 3]<br/>class = [0. 1.]>, fillcolor="#399de5"] ;
250 -> 252 ;
253 [label=<gini = 0.0<br/>samples = 2<br/>value = [2, 0]<br/>class = [0. 1.]>, fillcolor="#e58139"] ;
249 -> 253 ;
254 [label=<Feature_2 &le; 19.5<br/>gini = 0.074<br/>samples = 26<br/>value = [1, 25]<br/>class = [0. 1.]>, fillcolor="#41a1e6"] ;
246 -> 254 ;
255 [label=<gini = 0.0<br/>samples = 20<br/>value = [0, 20]<br/>class = [0. 1.]>, fillcolor="#399de5"] ;
254 -> 255 ;
256 [label=<Feature_20 &le; 6.5<br/>gini = 0.278<br/>samples = 6<br/>value = [1, 5]<br/>class = [0. 1.]>, fillcolor="#61b1ea"] ;
254 -> 256 ;
257 [label=<gini = 0.0<br/>samples = 5<br/>value = [0, 5]<br/>class = [0. 1.]>, fillcolor="#399de5"] ;
256 -> 257 ;
258 [label=<gini = 0.0<br/>samples = 1<br/>value = [1, 0]<br/>class = [0. 1.]>, fillcolor="#e58139"] ;
256 -> 258 ;
259 [label=<Feature_8 &le; 6.5<br/>gini = 0.499<br/>samples = 40<br/>value = [19, 21]<br/>class = [0. 1.]>, fillcolor="#ecf6fd"] ;
243 -> 259 ;
260 [label=<Feature_15 &le; 8.0<br/>gini = 0.124<br/>samples = 15<br/>value = [1, 14]<br/>class = [0. 1.]>, fillcolor="#47a4e7"] ;
259 -> 260 ;
261 [label=<gini = 0.0<br/>samples = 12<br/>value = [0, 12]<br/>class = [0. 1.]>, fillcolor="#399de5"] ;
260 -> 261 ;
262 [label=<Feature_2 &le; 4.5<br/>gini = 0.444<br/>samples = 3<br/>value = [1, 2]<br/>class = [0. 1.]>, fillcolor="#9ccef2"] ;
260 -> 262 ;
263 [label=<gini = 0.0<br/>samples = 1<br/>value = [1, 0]<br/>class = [0. 1.]>, fillcolor="#e58139"] ;
262 -> 263 ;
264 [label=<gini = 0.0<br/>samples = 2<br/>value = [0, 2]<br/>class = [0. 1.]>, fillcolor="#399de5"] ;
262 -> 264 ;
265 [label=<Feature_20 &le; 10.0<br/>gini = 0.403<br/>samples = 25<br/>value = [18, 7]<br/>class = [0. 1.]>, fillcolor="#efb286"] ;
259 -> 265 ;
266 [label=<Feature_10 &le; 7.0<br/>gini = 0.198<br/>samples = 18<br/>value = [16, 2]<br/>class = [0. 1.]>, fillcolor="#e89152"] ;
265 -> 266 ;
267 [label=<gini = 0.0<br/>samples = 10<br/>value = [10, 0]<br/>class = [0. 1.]>, fillcolor="#e58139"] ;
266 -> 267 ;
268 [label=<Feature_9 &le; 1.0<br/>gini = 0.375<br/>samples = 8<br/>value = [6, 2]<br/>class = [0. 1.]>, fillcolor="#eeab7b"] ;
266 -> 268 ;
269 [label=<gini = 0.0<br/>samples = 6<br/>value = [6, 0]<br/>class = [0. 1.]>, fillcolor="#e58139"] ;
268 -> 269 ;
270 [label=<gini = 0.0<br/>samples = 2<br/>value = [0, 2]<br/>class = [0. 1.]>, fillcolor="#399de5"] ;
268 -> 270 ;
271 [label=<Feature_6 &le; 1.0<br/>gini = 0.408<br/>samples = 7<br/>value = [2, 5]<br/>class = [0. 1.]>, fillcolor="#88c4ef"] ;
265 -> 271 ;
272 [label=<Feature_4 &le; 17.0<br/>gini = 0.444<br/>samples = 3<br/>value = [2, 1]<br/>class = [0. 1.]>, fillcolor="#f2c09c"] ;
271 -> 272 ;
273 [label=<gini = 0.0<br/>samples = 2<br/>value = [2, 0]<br/>class = [0. 1.]>, fillcolor="#e58139"] ;
272 -> 273 ;
274 [label=<gini = 0.0<br/>samples = 1<br/>value = [0, 1]<br/>class = [0. 1.]>, fillcolor="#399de5"] ;
272 -> 274 ;
275 [label=<gini = 0.0<br/>samples = 4<br/>value = [0, 4]<br/>class = [0. 1.]>, fillcolor="#399de5"] ;
271 -> 275 ;
276 [label=<Feature_8 &le; 6.5<br/>gini = 0.158<br/>samples = 116<br/>value = [10, 106]<br/>class = [0. 1.]>, fillcolor="#4ca6e7"] ;
242 -> 276 ;
277 [label=<Feature_13 &le; 1.0<br/>gini = 0.32<br/>samples = 50<br/>value = [10, 40]<br/>class = [0. 1.]>, fillcolor="#6ab6ec"] ;
276 -> 277 ;
278 [label=<Feature_19 &le; 1.0<br/>gini = 0.455<br/>samples = 20<br/>value = [7, 13]<br/>class = [0. 1.]>, fillcolor="#a4d2f3"] ;
277 -> 278 ;
279 [label=<Feature_20 &le; 12.0<br/>gini = 0.5<br/>samples = 14<br/>value = [7, 7]<br/>class = [0. 1.]>, fillcolor="#ffffff"] ;
278 -> 279 ;
280 [label=<Feature_9 &le; 1.0<br/>gini = 0.463<br/>samples = 11<br/>value = [7, 4]<br/>class = [0. 1.]>, fillcolor="#f4c9aa"] ;
279 -> 280 ;
281 [label=<gini = 0.0<br/>samples = 2<br/>value = [0, 2]<br/>class = [0. 1.]>, fillcolor="#399de5"] ;
280 -> 281 ;
282 [label=<Feature_15 &le; 2.0<br/>gini = 0.346<br/>samples = 9<br/>value = [7, 2]<br/>class = [0. 1.]>, fillcolor="#eca572"] ;
280 -> 282 ;
283 [label=<gini = 0.0<br/>samples = 3<br/>value = [3, 0]<br/>class = [0. 1.]>, fillcolor="#e58139"] ;
282 -> 283 ;
284 [label=<Feature_6 &le; 9.5<br/>gini = 0.444<br/>samples = 6<br/>value = [4, 2]<br/>class = [0. 1.]>, fillcolor="#f2c09c"] ;
282 -> 284 ;
285 [label=<Feature_15 &le; 8.0<br/>gini = 0.444<br/>samples = 3<br/>value = [1, 2]<br/>class = [0. 1.]>, fillcolor="#9ccef2"] ;
284 -> 285 ;
286 [label=<gini = 0.0<br/>samples = 2<br/>value = [0, 2]<br/>class = [0. 1.]>, fillcolor="#399de5"] ;
285 -> 286 ;
287 [label=<gini = 0.0<br/>samples = 1<br/>value = [1, 0]<br/>class = [0. 1.]>, fillcolor="#e58139"] ;
285 -> 287 ;
288 [label=<gini = 0.0<br/>samples = 3<br/>value = [3, 0]<br/>class = [0. 1.]>, fillcolor="#e58139"] ;
284 -> 288 ;
289 [label=<gini = 0.0<br/>samples = 3<br/>value = [0, 3]<br/>class = [0. 1.]>, fillcolor="#399de5"] ;
279 -> 289 ;
290 [label=<gini = 0.0<br/>samples = 6<br/>value = [0, 6]<br/>class = [0. 1.]>, fillcolor="#399de5"] ;
278 -> 290 ;
291 [label=<Feature_14 &le; 7.0<br/>gini = 0.18<br/>samples = 30<br/>value = [3, 27]<br/>class = [0. 1.]>, fillcolor="#4fa8e8"] ;
277 -> 291 ;
292 [label=<Feature_16 &le; 14.5<br/>gini = 0.077<br/>samples = 25<br/>value = [1, 24]<br/>class = [0. 1.]>, fillcolor="#41a1e6"] ;
291 -> 292 ;
293 [label=<gini = 0.0<br/>samples = 17<br/>value = [0, 17]<br/>class = [0. 1.]>, fillcolor="#399de5"] ;
292 -> 293 ;
294 [label=<Feature_18 &le; 2.0<br/>gini = 0.219<br/>samples = 8<br/>value = [1, 7]<br/>class = [0. 1.]>, fillcolor="#55abe9"] ;
292 -> 294 ;
295 [label=<Feature_13 &le; 8.5<br/>gini = 0.5<br/>samples = 2<br/>value = [1, 1]<br/>class = [0. 1.]>, fillcolor="#ffffff"] ;
294 -> 295 ;
296 [label=<gini = 0.0<br/>samples = 1<br/>value = [1, 0]<br/>class = [0. 1.]>, fillcolor="#e58139"] ;
295 -> 296 ;
297 [label=<gini = 0.0<br/>samples = 1<br/>value = [0, 1]<br/>class = [0. 1.]>, fillcolor="#399de5"] ;
295 -> 297 ;
298 [label=<gini = 0.0<br/>samples = 6<br/>value = [0, 6]<br/>class = [0. 1.]>, fillcolor="#399de5"] ;
294 -> 298 ;
299 [label=<Feature_13 &le; 8.5<br/>gini = 0.48<br/>samples = 5<br/>value = [2, 3]<br/>class = [0. 1.]>, fillcolor="#bddef6"] ;
291 -> 299 ;
300 [label=<gini = 0.0<br/>samples = 3<br/>value = [0, 3]<br/>class = [0. 1.]>, fillcolor="#399de5"] ;
299 -> 300 ;
301 [label=<gini = 0.0<br/>samples = 2<br/>value = [2, 0]<br/>class = [0. 1.]>, fillcolor="#e58139"] ;
299 -> 301 ;
302 [label=<gini = 0.0<br/>samples = 66<br/>value = [0, 66]<br/>class = [0. 1.]>, fillcolor="#399de5"] ;
276 -> 302 ;
303 [label=<Feature_14 &le; 7.0<br/>gini = 0.06<br/>samples = 130<br/>value = [4, 126]<br/>class = [0. 1.]>, fillcolor="#3fa0e6"] ;
241 -> 303 ;
304 [label=<Feature_2 &le; 19.5<br/>gini = 0.02<br/>samples = 100<br/>value = [1, 99]<br/>class = [0. 1.]>, fillcolor="#3b9ee5"] ;
303 -> 304 ;
305 [label=<gini = 0.0<br/>samples = 92<br/>value = [0, 92]<br/>class = [0. 1.]>, fillcolor="#399de5"] ;
304 -> 305 ;
306 [label=<Feature_8 &le; 6.5<br/>gini = 0.219<br/>samples = 8<br/>value = [1, 7]<br/>class = [0. 1.]>, fillcolor="#55abe9"] ;
304 -> 306 ;
307 [label=<gini = 0.0<br/>samples = 1<br/>value = [1, 0]<br/>class = [0. 1.]>, fillcolor="#e58139"] ;
306 -> 307 ;
308 [label=<gini = 0.0<br/>samples = 7<br/>value = [0, 7]<br/>class = [0. 1.]>, fillcolor="#399de5"] ;
306 -> 308 ;
309 [label=<Feature_20 &le; 1.0<br/>gini = 0.18<br/>samples = 30<br/>value = [3, 27]<br/>class = [0. 1.]>, fillcolor="#4fa8e8"] ;
303 -> 309 ;
310 [label=<Feature_4 &le; 15.5<br/>gini = 0.375<br/>samples = 12<br/>value = [3, 9]<br/>class = [0. 1.]>, fillcolor="#7bbeee"] ;
309 -> 310 ;
311 [label=<Feature_16 &le; 0.5<br/>gini = 0.5<br/>samples = 4<br/>value = [2, 2]<br/>class = [0. 1.]>, fillcolor="#ffffff"] ;
310 -> 311 ;
312 [label=<gini = 0.0<br/>samples = 2<br/>value = [0, 2]<br/>class = [0. 1.]>, fillcolor="#399de5"] ;
311 -> 312 ;
313 [label=<gini = 0.0<br/>samples = 2<br/>value = [2, 0]<br/>class = [0. 1.]>, fillcolor="#e58139"] ;
311 -> 313 ;
314 [label=<Feature_13 &le; 4.0<br/>gini = 0.219<br/>samples = 8<br/>value = [1, 7]<br/>class = [0. 1.]>, fillcolor="#55abe9"] ;
310 -> 314 ;
315 [label=<gini = 0.0<br/>samples = 6<br/>value = [0, 6]<br/>class = [0. 1.]>, fillcolor="#399de5"] ;
314 -> 315 ;
316 [label=<Feature_15 &le; 8.0<br/>gini = 0.5<br/>samples = 2<br/>value = [1, 1]<br/>class = [0. 1.]>, fillcolor="#ffffff"] ;
314 -> 316 ;
317 [label=<gini = 0.0<br/>samples = 1<br/>value = [1, 0]<br/>class = [0. 1.]>, fillcolor="#e58139"] ;
316 -> 317 ;
318 [label=<gini = 0.0<br/>samples = 1<br/>value = [0, 1]<br/>class = [0. 1.]>, fillcolor="#399de5"] ;
316 -> 318 ;
319 [label=<gini = 0.0<br/>samples = 18<br/>value = [0, 18]<br/>class = [0. 1.]>, fillcolor="#399de5"] ;
309 -> 319 ;
320 [label=<Feature_11 &le; 14.5<br/>gini = 0.013<br/>samples = 154<br/>value = [1, 153]<br/>class = [0. 1.]>, fillcolor="#3a9ee5"] ;
240 -> 320 ;
321 [label=<gini = 0.0<br/>samples = 132<br/>value = [0, 132]<br/>class = [0. 1.]>, fillcolor="#399de5"] ;
320 -> 321 ;
322 [label=<Feature_15 &le; 8.0<br/>gini = 0.087<br/>samples = 22<br/>value = [1, 21]<br/>class = [0. 1.]>, fillcolor="#42a2e6"] ;
320 -> 322 ;
323 [label=<gini = 0.0<br/>samples = 16<br/>value = [0, 16]<br/>class = [0. 1.]>, fillcolor="#399de5"] ;
322 -> 323 ;
324 [label=<Feature_20 &le; 1.0<br/>gini = 0.278<br/>samples = 6<br/>value = [1, 5]<br/>class = [0. 1.]>, fillcolor="#61b1ea"] ;
322 -> 324 ;
325 [label=<gini = 0.0<br/>samples = 5<br/>value = [0, 5]<br/>class = [0. 1.]>, fillcolor="#399de5"] ;
324 -> 325 ;
326 [label=<gini = 0.0<br/>samples = 1<br/>value = [1, 0]<br/>class = [0. 1.]>, fillcolor="#e58139"] ;
324 -> 326 ;
327 [label=<Feature_10 &le; 7.0<br/>gini = 0.361<br/>samples = 131<br/>value = [31, 100]<br/>class = [0. 1.]>, fillcolor="#76bbed"] ;
239 -> 327 ;
328 [label=<Feature_12 &le; 16.5<br/>gini = 0.5<br/>samples = 51<br/>value = [26, 25]<br/>class = [0. 1.]>, fillcolor="#fefaf7"] ;
327 -> 328 ;
329 [label=<Feature_15 &le; 2.0<br/>gini = 0.451<br/>samples = 32<br/>value = [11, 21]<br/>class = [0. 1.]>, fillcolor="#a1d0f3"] ;
328 -> 329 ;
330 [label=<Feature_3 &le; 9.0<br/>gini = 0.5<br/>samples = 22<br/>value = [11, 11]<br/>class = [0. 1.]>, fillcolor="#ffffff"] ;
329 -> 330 ;
331 [label=<Feature_12 &le; 7.5<br/>gini = 0.278<br/>samples = 6<br/>value = [1, 5]<br/>class = [0. 1.]>, fillcolor="#61b1ea"] ;
330 -> 331 ;
332 [label=<gini = 0.0<br/>samples = 5<br/>value = [0, 5]<br/>class = [0. 1.]>, fillcolor="#399de5"] ;
331 -> 332 ;
333 [label=<gini = 0.0<br/>samples = 1<br/>value = [1, 0]<br/>class = [0. 1.]>, fillcolor="#e58139"] ;
331 -> 333 ;
334 [label=<Feature_9 &le; 16.5<br/>gini = 0.469<br/>samples = 16<br/>value = [10, 6]<br/>class = [0. 1.]>, fillcolor="#f5cdb0"] ;
330 -> 334 ;
335 [label=<Feature_19 &le; 4.5<br/>gini = 0.355<br/>samples = 13<br/>value = [10, 3]<br/>class = [0. 1.]>, fillcolor="#eda774"] ;
334 -> 335 ;
336 [label=<gini = 0.0<br/>samples = 8<br/>value = [8, 0]<br/>class = [0. 1.]>, fillcolor="#e58139"] ;
335 -> 336 ;
337 [label=<Feature_11 &le; 1.5<br/>gini = 0.48<br/>samples = 5<br/>value = [2, 3]<br/>class = [0. 1.]>, fillcolor="#bddef6"] ;
335 -> 337 ;
338 [label=<gini = 0.0<br/>samples = 2<br/>value = [2, 0]<br/>class = [0. 1.]>, fillcolor="#e58139"] ;
337 -> 338 ;
339 [label=<gini = 0.0<br/>samples = 3<br/>value = [0, 3]<br/>class = [0. 1.]>, fillcolor="#399de5"] ;
337 -> 339 ;
340 [label=<gini = 0.0<br/>samples = 3<br/>value = [0, 3]<br/>class = [0. 1.]>, fillcolor="#399de5"] ;
334 -> 340 ;
341 [label=<gini = 0.0<br/>samples = 10<br/>value = [0, 10]<br/>class = [0. 1.]>, fillcolor="#399de5"] ;
329 -> 341 ;
342 [label=<Feature_15 &le; 2.0<br/>gini = 0.332<br/>samples = 19<br/>value = [15, 4]<br/>class = [0. 1.]>, fillcolor="#eca36e"] ;
328 -> 342 ;
343 [label=<gini = 0.0<br/>samples = 11<br/>value = [11, 0]<br/>class = [0. 1.]>, fillcolor="#e58139"] ;
342 -> 343 ;
344 [label=<Feature_6 &le; 1.0<br/>gini = 0.5<br/>samples = 8<br/>value = [4, 4]<br/>class = [0. 1.]>, fillcolor="#ffffff"] ;
342 -> 344 ;
345 [label=<gini = 0.0<br/>samples = 3<br/>value = [3, 0]<br/>class = [0. 1.]>, fillcolor="#e58139"] ;
344 -> 345 ;
346 [label=<Feature_20 &le; 1.0<br/>gini = 0.32<br/>samples = 5<br/>value = [1, 4]<br/>class = [0. 1.]>, fillcolor="#6ab6ec"] ;
344 -> 346 ;
347 [label=<gini = 0.0<br/>samples = 1<br/>value = [1, 0]<br/>class = [0. 1.]>, fillcolor="#e58139"] ;
346 -> 347 ;
348 [label=<gini = 0.0<br/>samples = 4<br/>value = [0, 4]<br/>class = [0. 1.]>, fillcolor="#399de5"] ;
346 -> 348 ;
349 [label=<Feature_13 &le; 1.0<br/>gini = 0.117<br/>samples = 80<br/>value = [5, 75]<br/>class = [0. 1.]>, fillcolor="#46a4e7"] ;
327 -> 349 ;
350 [label=<Feature_11 &le; 1.5<br/>gini = 0.198<br/>samples = 45<br/>value = [5, 40]<br/>class = [0. 1.]>, fillcolor="#52a9e8"] ;
349 -> 350 ;
351 [label=<Feature_16 &le; 9.0<br/>gini = 0.346<br/>samples = 18<br/>value = [4, 14]<br/>class = [0. 1.]>, fillcolor="#72b9ec"] ;
350 -> 351 ;
352 [label=<Feature_3 &le; 9.0<br/>gini = 0.444<br/>samples = 12<br/>value = [4, 8]<br/>class = [0. 1.]>, fillcolor="#9ccef2"] ;
351 -> 352 ;
353 [label=<gini = 0.0<br/>samples = 2<br/>value = [2, 0]<br/>class = [0. 1.]>, fillcolor="#e58139"] ;
352 -> 353 ;
354 [label=<Feature_6 &le; 9.5<br/>gini = 0.32<br/>samples = 10<br/>value = [2, 8]<br/>class = [0. 1.]>, fillcolor="#6ab6ec"] ;
352 -> 354 ;
355 [label=<Feature_2 &le; 3.0<br/>gini = 0.198<br/>samples = 9<br/>value = [1, 8]<br/>class = [0. 1.]>, fillcolor="#52a9e8"] ;
354 -> 355 ;
356 [label=<Feature_15 &le; 6.0<br/>gini = 0.444<br/>samples = 3<br/>value = [1, 2]<br/>class = [0. 1.]>, fillcolor="#9ccef2"] ;
355 -> 356 ;
357 [label=<gini = 0.0<br/>samples = 1<br/>value = [1, 0]<br/>class = [0. 1.]>, fillcolor="#e58139"] ;
356 -> 357 ;
358 [label=<gini = 0.0<br/>samples = 2<br/>value = [0, 2]<br/>class = [0. 1.]>, fillcolor="#399de5"] ;
356 -> 358 ;
359 [label=<gini = 0.0<br/>samples = 6<br/>value = [0, 6]<br/>class = [0. 1.]>, fillcolor="#399de5"] ;
355 -> 359 ;
360 [label=<gini = 0.0<br/>samples = 1<br/>value = [1, 0]<br/>class = [0. 1.]>, fillcolor="#e58139"] ;
354 -> 360 ;
361 [label=<gini = 0.0<br/>samples = 6<br/>value = [0, 6]<br/>class = [0. 1.]>, fillcolor="#399de5"] ;
351 -> 361 ;
362 [label=<Feature_11 &le; 6.0<br/>gini = 0.071<br/>samples = 27<br/>value = [1, 26]<br/>class = [0. 1.]>, fillcolor="#41a1e6"] ;
350 -> 362 ;
363 [label=<Feature_12 &le; 7.5<br/>gini = 0.18<br/>samples = 10<br/>value = [1, 9]<br/>class = [0. 1.]>, fillcolor="#4fa8e8"] ;
362 -> 363 ;
364 [label=<Feature_2 &le; 9.5<br/>gini = 0.5<br/>samples = 2<br/>value = [1, 1]<br/>class = [0. 1.]>, fillcolor="#ffffff"] ;
363 -> 364 ;
365 [label=<gini = 0.0<br/>samples = 1<br/>value = [1, 0]<br/>class = [0. 1.]>, fillcolor="#e58139"] ;
364 -> 365 ;
366 [label=<gini = 0.0<br/>samples = 1<br/>value = [0, 1]<br/>class = [0. 1.]>, fillcolor="#399de5"] ;
364 -> 366 ;
367 [label=<gini = 0.0<br/>samples = 8<br/>value = [0, 8]<br/>class = [0. 1.]>, fillcolor="#399de5"] ;
363 -> 367 ;
368 [label=<gini = 0.0<br/>samples = 17<br/>value = [0, 17]<br/>class = [0. 1.]>, fillcolor="#399de5"] ;
362 -> 368 ;
369 [label=<gini = 0.0<br/>samples = 35<br/>value = [0, 35]<br/>class = [0. 1.]>, fillcolor="#399de5"] ;
349 -> 369 ;
370 [label=<Feature_12 &le; 16.5<br/>gini = 0.493<br/>samples = 791<br/>value = [348, 443]<br/>class = [0. 1.]>, fillcolor="#d5eaf9"] ;
6 -> 370 ;
371 [label=<Feature_18 &le; 2.0<br/>gini = 0.394<br/>samples = 552<br/>value = [149, 403]<br/>class = [0. 1.]>, fillcolor="#82c1ef"] ;
370 -> 371 ;
372 [label=<Feature_12 &le; 7.5<br/>gini = 0.497<br/>samples = 277<br/>value = [127, 150]<br/>class = [0. 1.]>, fillcolor="#e1f0fb"] ;
371 -> 372 ;
373 [label=<Feature_10 &le; 7.0<br/>gini = 0.451<br/>samples = 163<br/>value = [107, 56]<br/>class = [0. 1.]>, fillcolor="#f3c3a1"] ;
372 -> 373 ;
374 [label=<Feature_16 &le; 2.5<br/>gini = 0.331<br/>samples = 62<br/>value = [13, 49]<br/>class = [0. 1.]>, fillcolor="#6eb7ec"] ;
373 -> 374 ;
375 [label=<Feature_7 &le; 1.5<br/>gini = 0.48<br/>samples = 25<br/>value = [10, 15]<br/>class = [0. 1.]>, fillcolor="#bddef6"] ;
374 -> 375 ;
376 [label=<Feature_14 &le; 2.0<br/>gini = 0.408<br/>samples = 21<br/>value = [6, 15]<br/>class = [0. 1.]>, fillcolor="#88c4ef"] ;
375 -> 376 ;
377 [label=<Feature_2 &le; 3.0<br/>gini = 0.469<br/>samples = 8<br/>value = [5, 3]<br/>class = [0. 1.]>, fillcolor="#f5cdb0"] ;
376 -> 377 ;
378 [label=<Feature_4 &le; 7.0<br/>gini = 0.375<br/>samples = 4<br/>value = [1, 3]<br/>class = [0. 1.]>, fillcolor="#7bbeee"] ;
377 -> 378 ;
379 [label=<gini = 0.0<br/>samples = 1<br/>value = [1, 0]<br/>class = [0. 1.]>, fillcolor="#e58139"] ;
378 -> 379 ;
380 [label=<gini = 0.0<br/>samples = 3<br/>value = [0, 3]<br/>class = [0. 1.]>, fillcolor="#399de5"] ;
378 -> 380 ;
381 [label=<gini = 0.0<br/>samples = 4<br/>value = [4, 0]<br/>class = [0. 1.]>, fillcolor="#e58139"] ;
377 -> 381 ;
382 [label=<Feature_14 &le; 13.0<br/>gini = 0.142<br/>samples = 13<br/>value = [1, 12]<br/>class = [0. 1.]>, fillcolor="#49a5e7"] ;
376 -> 382 ;
383 [label=<gini = 0.0<br/>samples = 9<br/>value = [0, 9]<br/>class = [0. 1.]>, fillcolor="#399de5"] ;
382 -> 383 ;
384 [label=<Feature_13 &le; 4.5<br/>gini = 0.375<br/>samples = 4<br/>value = [1, 3]<br/>class = [0. 1.]>, fillcolor="#7bbeee"] ;
382 -> 384 ;
385 [label=<gini = 0.0<br/>samples = 1<br/>value = [1, 0]<br/>class = [0. 1.]>, fillcolor="#e58139"] ;
384 -> 385 ;
386 [label=<gini = 0.0<br/>samples = 3<br/>value = [0, 3]<br/>class = [0. 1.]>, fillcolor="#399de5"] ;
384 -> 386 ;
387 [label=<gini = 0.0<br/>samples = 4<br/>value = [4, 0]<br/>class = [0. 1.]>, fillcolor="#e58139"] ;
375 -> 387 ;
388 [label=<Feature_7 &le; 1.5<br/>gini = 0.149<br/>samples = 37<br/>value = [3, 34]<br/>class = [0. 1.]>, fillcolor="#4aa6e7"] ;
374 -> 388 ;
389 [label=<gini = 0.0<br/>samples = 25<br/>value = [0, 25]<br/>class = [0. 1.]>, fillcolor="#399de5"] ;
388 -> 389 ;
390 [label=<Feature_11 &le; 1.5<br/>gini = 0.375<br/>samples = 12<br/>value = [3, 9]<br/>class = [0. 1.]>, fillcolor="#7bbeee"] ;
388 -> 390 ;
391 [label=<Feature_8 &le; 6.5<br/>gini = 0.48<br/>samples = 5<br/>value = [3, 2]<br/>class = [0. 1.]>, fillcolor="#f6d5bd"] ;
390 -> 391 ;
392 [label=<gini = 0.0<br/>samples = 2<br/>value = [0, 2]<br/>class = [0. 1.]>, fillcolor="#399de5"] ;
391 -> 392 ;
393 [label=<gini = 0.0<br/>samples = 3<br/>value = [3, 0]<br/>class = [0. 1.]>, fillcolor="#e58139"] ;
391 -> 393 ;
394 [label=<gini = 0.0<br/>samples = 7<br/>value = [0, 7]<br/>class = [0. 1.]>, fillcolor="#399de5"] ;
390 -> 394 ;
395 [label=<Feature_14 &le; 7.0<br/>gini = 0.129<br/>samples = 101<br/>value = [94, 7]<br/>class = [0. 1.]>, fillcolor="#e78a48"] ;
373 -> 395 ;
396 [label=<gini = 0.0<br/>samples = 68<br/>value = [68, 0]<br/>class = [0. 1.]>, fillcolor="#e58139"] ;
395 -> 396 ;
397 [label=<Feature_14 &le; 13.0<br/>gini = 0.334<br/>samples = 33<br/>value = [26, 7]<br/>class = [0. 1.]>, fillcolor="#eca36e"] ;
395 -> 397 ;
398 [label=<Feature_4 &le; 7.0<br/>gini = 0.484<br/>samples = 17<br/>value = [10, 7]<br/>class = [0. 1.]>, fillcolor="#f7d9c4"] ;
397 -> 398 ;
399 [label=<gini = 0.0<br/>samples = 6<br/>value = [6, 0]<br/>class = [0. 1.]>, fillcolor="#e58139"] ;
398 -> 399 ;
400 [label=<Feature_17 &le; 3.0<br/>gini = 0.463<br/>samples = 11<br/>value = [4, 7]<br/>class = [0. 1.]>, fillcolor="#aad5f4"] ;
398 -> 400 ;
401 [label=<Feature_20 &le; 5.5<br/>gini = 0.444<br/>samples = 6<br/>value = [4, 2]<br/>class = [0. 1.]>, fillcolor="#f2c09c"] ;
400 -> 401 ;
402 [label=<gini = 0.0<br/>samples = 3<br/>value = [3, 0]<br/>class = [0. 1.]>, fillcolor="#e58139"] ;
401 -> 402 ;
403 [label=<Feature_8 &le; 6.5<br/>gini = 0.444<br/>samples = 3<br/>value = [1, 2]<br/>class = [0. 1.]>, fillcolor="#9ccef2"] ;
401 -> 403 ;
404 [label=<gini = 0.0<br/>samples = 2<br/>value = [0, 2]<br/>class = [0. 1.]>, fillcolor="#399de5"] ;
403 -> 404 ;
405 [label=<gini = 0.0<br/>samples = 1<br/>value = [1, 0]<br/>class = [0. 1.]>, fillcolor="#e58139"] ;
403 -> 405 ;
406 [label=<gini = 0.0<br/>samples = 5<br/>value = [0, 5]<br/>class = [0. 1.]>, fillcolor="#399de5"] ;
400 -> 406 ;
407 [label=<gini = 0.0<br/>samples = 16<br/>value = [16, 0]<br/>class = [0. 1.]>, fillcolor="#e58139"] ;
397 -> 407 ;
408 [label=<Feature_14 &le; 13.0<br/>gini = 0.289<br/>samples = 114<br/>value = [20, 94]<br/>class = [0. 1.]>, fillcolor="#63b2eb"] ;
372 -> 408 ;
409 [label=<Feature_7 &le; 1.5<br/>gini = 0.175<br/>samples = 93<br/>value = [9, 84]<br/>class = [0. 1.]>, fillcolor="#4ea8e8"] ;
408 -> 409 ;
410 [label=<gini = 0.0<br/>samples = 63<br/>value = [0, 63]<br/>class = [0. 1.]>, fillcolor="#399de5"] ;
409 -> 410 ;
411 [label=<Feature_11 &le; 1.5<br/>gini = 0.42<br/>samples = 30<br/>value = [9, 21]<br/>class = [0. 1.]>, fillcolor="#8ec7f0"] ;
409 -> 411 ;
412 [label=<Feature_2 &le; 3.0<br/>gini = 0.498<br/>samples = 15<br/>value = [8, 7]<br/>class = [0. 1.]>, fillcolor="#fcefe6"] ;
411 -> 412 ;
413 [label=<gini = 0.0<br/>samples = 5<br/>value = [0, 5]<br/>class = [0. 1.]>, fillcolor="#399de5"] ;
412 -> 413 ;
414 [label=<Feature_19 &le; 4.5<br/>gini = 0.32<br/>samples = 10<br/>value = [8, 2]<br/>class = [0. 1.]>, fillcolor="#eca06a"] ;
412 -> 414 ;
415 [label=<gini = 0.0<br/>samples = 7<br/>value = [7, 0]<br/>class = [0. 1.]>, fillcolor="#e58139"] ;
414 -> 415 ;
416 [label=<Feature_16 &le; 0.5<br/>gini = 0.444<br/>samples = 3<br/>value = [1, 2]<br/>class = [0. 1.]>, fillcolor="#9ccef2"] ;
414 -> 416 ;
417 [label=<gini = 0.0<br/>samples = 1<br/>value = [1, 0]<br/>class = [0. 1.]>, fillcolor="#e58139"] ;
416 -> 417 ;
418 [label=<gini = 0.0<br/>samples = 2<br/>value = [0, 2]<br/>class = [0. 1.]>, fillcolor="#399de5"] ;
416 -> 418 ;
419 [label=<Feature_2 &le; 19.5<br/>gini = 0.124<br/>samples = 15<br/>value = [1, 14]<br/>class = [0. 1.]>, fillcolor="#47a4e7"] ;
411 -> 419 ;
420 [label=<gini = 0.0<br/>samples = 13<br/>value = [0, 13]<br/>class = [0. 1.]>, fillcolor="#399de5"] ;
419 -> 420 ;
421 [label=<Feature_6 &le; 8.5<br/>gini = 0.5<br/>samples = 2<br/>value = [1, 1]<br/>class = [0. 1.]>, fillcolor="#ffffff"] ;
419 -> 421 ;
422 [label=<gini = 0.0<br/>samples = 1<br/>value = [1, 0]<br/>class = [0. 1.]>, fillcolor="#e58139"] ;
421 -> 422 ;
423 [label=<gini = 0.0<br/>samples = 1<br/>value = [0, 1]<br/>class = [0. 1.]>, fillcolor="#399de5"] ;
421 -> 423 ;
424 [label=<Feature_10 &le; 7.0<br/>gini = 0.499<br/>samples = 21<br/>value = [11, 10]<br/>class = [0. 1.]>, fillcolor="#fdf4ed"] ;
408 -> 424 ;
425 [label=<gini = 0.0<br/>samples = 10<br/>value = [10, 0]<br/>class = [0. 1.]>, fillcolor="#e58139"] ;
424 -> 425 ;
426 [label=<Feature_9 &le; 16.5<br/>gini = 0.165<br/>samples = 11<br/>value = [1, 10]<br/>class = [0. 1.]>, fillcolor="#4da7e8"] ;
424 -> 426 ;
427 [label=<gini = 0.0<br/>samples = 9<br/>value = [0, 9]<br/>class = [0. 1.]>, fillcolor="#399de5"] ;
426 -> 427 ;
428 [label=<Feature_11 &le; 4.5<br/>gini = 0.5<br/>samples = 2<br/>value = [1, 1]<br/>class = [0. 1.]>, fillcolor="#ffffff"] ;
426 -> 428 ;
429 [label=<gini = 0.0<br/>samples = 1<br/>value = [1, 0]<br/>class = [0. 1.]>, fillcolor="#e58139"] ;
428 -> 429 ;
430 [label=<gini = 0.0<br/>samples = 1<br/>value = [0, 1]<br/>class = [0. 1.]>, fillcolor="#399de5"] ;
428 -> 430 ;
431 [label=<Feature_7 &le; 1.5<br/>gini = 0.147<br/>samples = 275<br/>value = [22, 253]<br/>class = [0. 1.]>, fillcolor="#4aa6e7"] ;
371 -> 431 ;
432 [label=<Feature_20 &le; 1.0<br/>gini = 0.052<br/>samples = 187<br/>value = [5, 182]<br/>class = [0. 1.]>, fillcolor="#3ea0e6"] ;
431 -> 432 ;
433 [label=<Feature_12 &le; 7.5<br/>gini = 0.111<br/>samples = 85<br/>value = [5, 80]<br/>class = [0. 1.]>, fillcolor="#45a3e7"] ;
432 -> 433 ;
434 [label=<Feature_16 &le; 2.5<br/>gini = 0.198<br/>samples = 45<br/>value = [5, 40]<br/>class = [0. 1.]>, fillcolor="#52a9e8"] ;
433 -> 434 ;
435 [label=<Feature_16 &le; 0.5<br/>gini = 0.32<br/>samples = 25<br/>value = [5, 20]<br/>class = [0. 1.]>, fillcolor="#6ab6ec"] ;
434 -> 435 ;
436 [label=<gini = 0.0<br/>samples = 16<br/>value = [0, 16]<br/>class = [0. 1.]>, fillcolor="#399de5"] ;
435 -> 436 ;
437 [label=<Feature_9 &le; 12.0<br/>gini = 0.494<br/>samples = 9<br/>value = [5, 4]<br/>class = [0. 1.]>, fillcolor="#fae6d7"] ;
435 -> 437 ;
438 [label=<Feature_18 &le; 8.0<br/>gini = 0.278<br/>samples = 6<br/>value = [5, 1]<br/>class = [0. 1.]>, fillcolor="#ea9a61"] ;
437 -> 438 ;
439 [label=<Feature_2 &le; 11.0<br/>gini = 0.5<br/>samples = 2<br/>value = [1, 1]<br/>class = [0. 1.]>, fillcolor="#ffffff"] ;
438 -> 439 ;
440 [label=<gini = 0.0<br/>samples = 1<br/>value = [1, 0]<br/>class = [0. 1.]>, fillcolor="#e58139"] ;
439 -> 440 ;
441 [label=<gini = 0.0<br/>samples = 1<br/>value = [0, 1]<br/>class = [0. 1.]>, fillcolor="#399de5"] ;
439 -> 441 ;
442 [label=<gini = 0.0<br/>samples = 4<br/>value = [4, 0]<br/>class = [0. 1.]>, fillcolor="#e58139"] ;
438 -> 442 ;
443 [label=<gini = 0.0<br/>samples = 3<br/>value = [0, 3]<br/>class = [0. 1.]>, fillcolor="#399de5"] ;
437 -> 443 ;
444 [label=<gini = 0.0<br/>samples = 20<br/>value = [0, 20]<br/>class = [0. 1.]>, fillcolor="#399de5"] ;
434 -> 444 ;
445 [label=<gini = 0.0<br/>samples = 40<br/>value = [0, 40]<br/>class = [0. 1.]>, fillcolor="#399de5"] ;
433 -> 445 ;
446 [label=<gini = 0.0<br/>samples = 102<br/>value = [0, 102]<br/>class = [0. 1.]>, fillcolor="#399de5"] ;
432 -> 446 ;
447 [label=<Feature_3 &le; 3.5<br/>gini = 0.312<br/>samples = 88<br/>value = [17, 71]<br/>class = [0. 1.]>, fillcolor="#68b4eb"] ;
431 -> 447 ;
448 [label=<Feature_11 &le; 1.5<br/>gini = 0.458<br/>samples = 31<br/>value = [11, 20]<br/>class = [0. 1.]>, fillcolor="#a6d3f3"] ;
447 -> 448 ;
449 [label=<Feature_13 &le; 8.5<br/>gini = 0.32<br/>samples = 10<br/>value = [8, 2]<br/>class = [0. 1.]>, fillcolor="#eca06a"] ;
448 -> 449 ;
450 [label=<gini = 0.0<br/>samples = 7<br/>value = [7, 0]<br/>class = [0. 1.]>, fillcolor="#e58139"] ;
449 -> 450 ;
451 [label=<Feature_16 &le; 7.0<br/>gini = 0.444<br/>samples = 3<br/>value = [1, 2]<br/>class = [0. 1.]>, fillcolor="#9ccef2"] ;
449 -> 451 ;
452 [label=<gini = 0.0<br/>samples = 2<br/>value = [0, 2]<br/>class = [0. 1.]>, fillcolor="#399de5"] ;
451 -> 452 ;
453 [label=<gini = 0.0<br/>samples = 1<br/>value = [1, 0]<br/>class = [0. 1.]>, fillcolor="#e58139"] ;
451 -> 453 ;
454 [label=<Feature_8 &le; 6.5<br/>gini = 0.245<br/>samples = 21<br/>value = [3, 18]<br/>class = [0. 1.]>, fillcolor="#5aade9"] ;
448 -> 454 ;
455 [label=<Feature_11 &le; 6.0<br/>gini = 0.49<br/>samples = 7<br/>value = [3, 4]<br/>class = [0. 1.]>, fillcolor="#cee6f8"] ;
454 -> 455 ;
456 [label=<gini = 0.0<br/>samples = 3<br/>value = [0, 3]<br/>class = [0. 1.]>, fillcolor="#399de5"] ;
455 -> 456 ;
457 [label=<Feature_18 &le; 8.0<br/>gini = 0.375<br/>samples = 4<br/>value = [3, 1]<br/>class = [0. 1.]>, fillcolor="#eeab7b"] ;
455 -> 457 ;
458 [label=<gini = 0.0<br/>samples = 3<br/>value = [3, 0]<br/>class = [0. 1.]>, fillcolor="#e58139"] ;
457 -> 458 ;
459 [label=<gini = 0.0<br/>samples = 1<br/>value = [0, 1]<br/>class = [0. 1.]>, fillcolor="#399de5"] ;
457 -> 459 ;
460 [label=<gini = 0.0<br/>samples = 14<br/>value = [0, 14]<br/>class = [0. 1.]>, fillcolor="#399de5"] ;
454 -> 460 ;
461 [label=<Feature_11 &le; 14.5<br/>gini = 0.188<br/>samples = 57<br/>value = [6, 51]<br/>class = [0. 1.]>, fillcolor="#50a9e8"] ;
447 -> 461 ;
462 [label=<Feature_14 &le; 13.0<br/>gini = 0.117<br/>samples = 48<br/>value = [3, 45]<br/>class = [0. 1.]>, fillcolor="#46a4e7"] ;
461 -> 462 ;
463 [label=<Feature_2 &le; 16.0<br/>gini = 0.049<br/>samples = 40<br/>value = [1, 39]<br/>class = [0. 1.]>, fillcolor="#3ea0e6"] ;
462 -> 463 ;
464 [label=<gini = 0.0<br/>samples = 30<br/>value = [0, 30]<br/>class = [0. 1.]>, fillcolor="#399de5"] ;
463 -> 464 ;
465 [label=<Feature_12 &le; 7.5<br/>gini = 0.18<br/>samples = 10<br/>value = [1, 9]<br/>class = [0. 1.]>, fillcolor="#4fa8e8"] ;
463 -> 465 ;
466 [label=<Feature_6 &le; 8.5<br/>gini = 0.444<br/>samples = 3<br/>value = [1, 2]<br/>class = [0. 1.]>, fillcolor="#9ccef2"] ;
465 -> 466 ;
467 [label=<gini = 0.0<br/>samples = 1<br/>value = [1, 0]<br/>class = [0. 1.]>, fillcolor="#e58139"] ;
466 -> 467 ;
468 [label=<gini = 0.0<br/>samples = 2<br/>value = [0, 2]<br/>class = [0. 1.]>, fillcolor="#399de5"] ;
466 -> 468 ;
469 [label=<gini = 0.0<br/>samples = 7<br/>value = [0, 7]<br/>class = [0. 1.]>, fillcolor="#399de5"] ;
465 -> 469 ;
470 [label=<Feature_18 &le; 8.0<br/>gini = 0.375<br/>samples = 8<br/>value = [2, 6]<br/>class = [0. 1.]>, fillcolor="#7bbeee"] ;
462 -> 470 ;
471 [label=<gini = 0.0<br/>samples = 5<br/>value = [0, 5]<br/>class = [0. 1.]>, fillcolor="#399de5"] ;
470 -> 471 ;
472 [label=<Feature_3 &le; 9.0<br/>gini = 0.444<br/>samples = 3<br/>value = [2, 1]<br/>class = [0. 1.]>, fillcolor="#f2c09c"] ;
470 -> 472 ;
473 [label=<gini = 0.0<br/>samples = 2<br/>value = [2, 0]<br/>class = [0. 1.]>, fillcolor="#e58139"] ;
472 -> 473 ;
474 [label=<gini = 0.0<br/>samples = 1<br/>value = [0, 1]<br/>class = [0. 1.]>, fillcolor="#399de5"] ;
472 -> 474 ;
475 [label=<Feature_12 &le; 7.5<br/>gini = 0.444<br/>samples = 9<br/>value = [3, 6]<br/>class = [0. 1.]>, fillcolor="#9ccef2"] ;
461 -> 475 ;
476 [label=<gini = 0.0<br/>samples = 5<br/>value = [0, 5]<br/>class = [0. 1.]>, fillcolor="#399de5"] ;
475 -> 476 ;
477 [label=<Feature_16 &le; 0.5<br/>gini = 0.375<br/>samples = 4<br/>value = [3, 1]<br/>class = [0. 1.]>, fillcolor="#eeab7b"] ;
475 -> 477 ;
478 [label=<gini = 0.0<br/>samples = 1<br/>value = [0, 1]<br/>class = [0. 1.]>, fillcolor="#399de5"] ;
477 -> 478 ;
479 [label=<gini = 0.0<br/>samples = 3<br/>value = [3, 0]<br/>class = [0. 1.]>, fillcolor="#e58139"] ;
477 -> 479 ;
480 [label=<Feature_10 &le; 7.0<br/>gini = 0.279<br/>samples = 239<br/>value = [199, 40]<br/>class = [0. 1.]>, fillcolor="#ea9a61"] ;
370 -> 480 ;
481 [label=<Feature_14 &le; 2.0<br/>gini = 0.492<br/>samples = 89<br/>value = [50, 39]<br/>class = [0. 1.]>, fillcolor="#f9e3d3"] ;
480 -> 481 ;
482 [label=<Feature_18 &le; 8.0<br/>gini = 0.175<br/>samples = 31<br/>value = [28, 3]<br/>class = [0. 1.]>, fillcolor="#e88e4e"] ;
481 -> 482 ;
483 [label=<gini = 0.0<br/>samples = 25<br/>value = [25, 0]<br/>class = [0. 1.]>, fillcolor="#e58139"] ;
482 -> 483 ;
484 [label=<Feature_11 &le; 6.0<br/>gini = 0.5<br/>samples = 6<br/>value = [3, 3]<br/>class = [0. 1.]>, fillcolor="#ffffff"] ;
482 -> 484 ;
485 [label=<gini = 0.0<br/>samples = 3<br/>value = [3, 0]<br/>class = [0. 1.]>, fillcolor="#e58139"] ;
484 -> 485 ;
486 [label=<gini = 0.0<br/>samples = 3<br/>value = [0, 3]<br/>class = [0. 1.]>, fillcolor="#399de5"] ;
484 -> 486 ;
487 [label=<Feature_14 &le; 13.0<br/>gini = 0.471<br/>samples = 58<br/>value = [22, 36]<br/>class = [0. 1.]>, fillcolor="#b2d9f5"] ;
481 -> 487 ;
488 [label=<gini = 0.0<br/>samples = 33<br/>value = [0, 33]<br/>class = [0. 1.]>, fillcolor="#399de5"] ;
487 -> 488 ;
489 [label=<Feature_18 &le; 8.0<br/>gini = 0.211<br/>samples = 25<br/>value = [22, 3]<br/>class = [0. 1.]>, fillcolor="#e99254"] ;
487 -> 489 ;
490 [label=<gini = 0.0<br/>samples = 21<br/>value = [21, 0]<br/>class = [0. 1.]>, fillcolor="#e58139"] ;
489 -> 490 ;
491 [label=<Feature_4 &le; 15.0<br/>gini = 0.375<br/>samples = 4<br/>value = [1, 3]<br/>class = [0. 1.]>, fillcolor="#7bbeee"] ;
489 -> 491 ;
492 [label=<gini = 0.0<br/>samples = 3<br/>value = [0, 3]<br/>class = [0. 1.]>, fillcolor="#399de5"] ;
491 -> 492 ;
493 [label=<gini = 0.0<br/>samples = 1<br/>value = [1, 0]<br/>class = [0. 1.]>, fillcolor="#e58139"] ;
491 -> 493 ;
494 [label=<Feature_16 &le; 16.5<br/>gini = 0.013<br/>samples = 150<br/>value = [149, 1]<br/>class = [0. 1.]>, fillcolor="#e5823a"] ;
480 -> 494 ;
495 [label=<gini = 0.0<br/>samples = 132<br/>value = [132, 0]<br/>class = [0. 1.]>, fillcolor="#e58139"] ;
494 -> 495 ;
496 [label=<Feature_13 &le; 8.5<br/>gini = 0.105<br/>samples = 18<br/>value = [17, 1]<br/>class = [0. 1.]>, fillcolor="#e78845"] ;
494 -> 496 ;
497 [label=<gini = 0.0<br/>samples = 13<br/>value = [13, 0]<br/>class = [0. 1.]>, fillcolor="#e58139"] ;
496 -> 497 ;
498 [label=<Feature_4 &le; 14.5<br/>gini = 0.32<br/>samples = 5<br/>value = [4, 1]<br/>class = [0. 1.]>, fillcolor="#eca06a"] ;
496 -> 498 ;
499 [label=<gini = 0.0<br/>samples = 3<br/>value = [3, 0]<br/>class = [0. 1.]>, fillcolor="#e58139"] ;
498 -> 499 ;
500 [label=<Feature_20 &le; 1.0<br/>gini = 0.5<br/>samples = 2<br/>value = [1, 1]<br/>class = [0. 1.]>, fillcolor="#ffffff"] ;
498 -> 500 ;
501 [label=<gini = 0.0<br/>samples = 1<br/>value = [1, 0]<br/>class = [0. 1.]>, fillcolor="#e58139"] ;
500 -> 501 ;
502 [label=<gini = 0.0<br/>samples = 1<br/>value = [0, 1]<br/>class = [0. 1.]>, fillcolor="#399de5"] ;
500 -> 502 ;
503 [label=<Feature_12 &le; 16.5<br/>gini = 0.499<br/>samples = 1009<br/>value = [522, 487]<br/>class = [0. 1.]>, fillcolor="#fdf7f2"] ;
5 -> 503 ;
504 [label=<Feature_12 &le; 7.5<br/>gini = 0.465<br/>samples = 717<br/>value = [453, 264]<br/>class = [0. 1.]>, fillcolor="#f4caac"] ;
503 -> 504 ;
505 [label=<Feature_15 &le; 2.0<br/>gini = 0.497<br/>samples = 398<br/>value = [183, 215]<br/>class = [0. 1.]>, fillcolor="#e2f0fb"] ;
504 -> 505 ;
506 [label=<Feature_10 &le; 7.0<br/>gini = 0.398<br/>samples = 146<br/>value = [106, 40]<br/>class = [0. 1.]>, fillcolor="#efb184"] ;
505 -> 506 ;
507 [label=<Feature_16 &le; 2.5<br/>gini = 0.488<br/>samples = 57<br/>value = [24, 33]<br/>class = [0. 1.]>, fillcolor="#c9e4f8"] ;
506 -> 507 ;
508 [label=<Feature_4 &le; 7.0<br/>gini = 0.48<br/>samples = 35<br/>value = [21, 14]<br/>class = [0. 1.]>, fillcolor="#f6d5bd"] ;
507 -> 508 ;
509 [label=<Feature_20 &le; 10.0<br/>gini = 0.266<br/>samples = 19<br/>value = [16, 3]<br/>class = [0. 1.]>, fillcolor="#ea995e"] ;
508 -> 509 ;
510 [label=<Feature_19 &le; 4.5<br/>gini = 0.124<br/>samples = 15<br/>value = [14, 1]<br/>class = [0. 1.]>, fillcolor="#e78a47"] ;
509 -> 510 ;
511 [label=<gini = 0.0<br/>samples = 13<br/>value = [13, 0]<br/>class = [0. 1.]>, fillcolor="#e58139"] ;
510 -> 511 ;
512 [label=<Feature_11 &le; 6.0<br/>gini = 0.5<br/>samples = 2<br/>value = [1, 1]<br/>class = [0. 1.]>, fillcolor="#ffffff"] ;
510 -> 512 ;
513 [label=<gini = 0.0<br/>samples = 1<br/>value = [1, 0]<br/>class = [0. 1.]>, fillcolor="#e58139"] ;
512 -> 513 ;
514 [label=<gini = 0.0<br/>samples = 1<br/>value = [0, 1]<br/>class = [0. 1.]>, fillcolor="#399de5"] ;
512 -> 514 ;
515 [label=<Feature_3 &le; 3.5<br/>gini = 0.5<br/>samples = 4<br/>value = [2, 2]<br/>class = [0. 1.]>, fillcolor="#ffffff"] ;
509 -> 515 ;
516 [label=<gini = 0.0<br/>samples = 1<br/>value = [0, 1]<br/>class = [0. 1.]>, fillcolor="#399de5"] ;
515 -> 516 ;
517 [label=<Feature_11 &le; 6.0<br/>gini = 0.444<br/>samples = 3<br/>value = [2, 1]<br/>class = [0. 1.]>, fillcolor="#f2c09c"] ;
515 -> 517 ;
518 [label=<gini = 0.0<br/>samples = 2<br/>value = [2, 0]<br/>class = [0. 1.]>, fillcolor="#e58139"] ;
517 -> 518 ;
519 [label=<gini = 0.0<br/>samples = 1<br/>value = [0, 1]<br/>class = [0. 1.]>, fillcolor="#399de5"] ;
517 -> 519 ;
520 [label=<Feature_16 &le; 0.5<br/>gini = 0.43<br/>samples = 16<br/>value = [5, 11]<br/>class = [0. 1.]>, fillcolor="#93caf1"] ;
508 -> 520 ;
521 [label=<Feature_7 &le; 1.5<br/>gini = 0.337<br/>samples = 14<br/>value = [3, 11]<br/>class = [0. 1.]>, fillcolor="#6fb8ec"] ;
520 -> 521 ;
522 [label=<gini = 0.0<br/>samples = 9<br/>value = [0, 9]<br/>class = [0. 1.]>, fillcolor="#399de5"] ;
521 -> 522 ;
523 [label=<Feature_2 &le; 19.5<br/>gini = 0.48<br/>samples = 5<br/>value = [3, 2]<br/>class = [0. 1.]>, fillcolor="#f6d5bd"] ;
521 -> 523 ;
524 [label=<gini = 0.0<br/>samples = 3<br/>value = [3, 0]<br/>class = [0. 1.]>, fillcolor="#e58139"] ;
523 -> 524 ;
525 [label=<gini = 0.0<br/>samples = 2<br/>value = [0, 2]<br/>class = [0. 1.]>, fillcolor="#399de5"] ;
523 -> 525 ;
526 [label=<gini = 0.0<br/>samples = 2<br/>value = [2, 0]<br/>class = [0. 1.]>, fillcolor="#e58139"] ;
520 -> 526 ;
527 [label=<Feature_11 &le; 1.5<br/>gini = 0.236<br/>samples = 22<br/>value = [3, 19]<br/>class = [0. 1.]>, fillcolor="#58ace9"] ;
507 -> 527 ;
528 [label=<Feature_3 &le; 3.5<br/>gini = 0.469<br/>samples = 8<br/>value = [3, 5]<br/>class = [0. 1.]>, fillcolor="#b0d8f5"] ;
527 -> 528 ;
529 [label=<gini = 0.0<br/>samples = 3<br/>value = [3, 0]<br/>class = [0. 1.]>, fillcolor="#e58139"] ;
528 -> 529 ;
530 [label=<gini = 0.0<br/>samples = 5<br/>value = [0, 5]<br/>class = [0. 1.]>, fillcolor="#399de5"] ;
528 -> 530 ;
531 [label=<gini = 0.0<br/>samples = 14<br/>value = [0, 14]<br/>class = [0. 1.]>, fillcolor="#399de5"] ;
527 -> 531 ;
532 [label=<Feature_14 &le; 7.0<br/>gini = 0.145<br/>samples = 89<br/>value = [82, 7]<br/>class = [0. 1.]>, fillcolor="#e78c4a"] ;
506 -> 532 ;
533 [label=<gini = 0.0<br/>samples = 51<br/>value = [51, 0]<br/>class = [0. 1.]>, fillcolor="#e58139"] ;
532 -> 533 ;
534 [label=<Feature_14 &le; 13.0<br/>gini = 0.301<br/>samples = 38<br/>value = [31, 7]<br/>class = [0. 1.]>, fillcolor="#eb9d66"] ;
532 -> 534 ;
535 [label=<Feature_16 &le; 14.5<br/>gini = 0.475<br/>samples = 18<br/>value = [11, 7]<br/>class = [0. 1.]>, fillcolor="#f6d1b7"] ;
534 -> 535 ;
536 [label=<Feature_4 &le; 17.0<br/>gini = 0.26<br/>samples = 13<br/>value = [11, 2]<br/>class = [0. 1.]>, fillcolor="#ea985d"] ;
535 -> 536 ;
537 [label=<Feature_9 &le; 1.0<br/>gini = 0.153<br/>samples = 12<br/>value = [11, 1]<br/>class = [0. 1.]>, fillcolor="#e78c4b"] ;
536 -> 537 ;
538 [label=<Feature_4 &le; 14.5<br/>gini = 0.444<br/>samples = 3<br/>value = [2, 1]<br/>class = [0. 1.]>, fillcolor="#f2c09c"] ;
537 -> 538 ;
539 [label=<gini = 0.0<br/>samples = 2<br/>value = [2, 0]<br/>class = [0. 1.]>, fillcolor="#e58139"] ;
538 -> 539 ;
540 [label=<gini = 0.0<br/>samples = 1<br/>value = [0, 1]<br/>class = [0. 1.]>, fillcolor="#399de5"] ;
538 -> 540 ;
541 [label=<gini = 0.0<br/>samples = 9<br/>value = [9, 0]<br/>class = [0. 1.]>, fillcolor="#e58139"] ;
537 -> 541 ;
542 [label=<gini = 0.0<br/>samples = 1<br/>value = [0, 1]<br/>class = [0. 1.]>, fillcolor="#399de5"] ;
536 -> 542 ;
543 [label=<gini = 0.0<br/>samples = 5<br/>value = [0, 5]<br/>class = [0. 1.]>, fillcolor="#399de5"] ;
535 -> 543 ;
544 [label=<gini = 0.0<br/>samples = 20<br/>value = [20, 0]<br/>class = [0. 1.]>, fillcolor="#e58139"] ;
534 -> 544 ;
545 [label=<Feature_15 &le; 14.0<br/>gini = 0.424<br/>samples = 252<br/>value = [77, 175]<br/>class = [0. 1.]>, fillcolor="#90c8f0"] ;
505 -> 545 ;
546 [label=<Feature_7 &le; 1.5<br/>gini = 0.259<br/>samples = 157<br/>value = [24, 133]<br/>class = [0. 1.]>, fillcolor="#5dafea"] ;
545 -> 546 ;
547 [label=<Feature_10 &le; 7.0<br/>gini = 0.106<br/>samples = 107<br/>value = [6, 101]<br/>class = [0. 1.]>, fillcolor="#45a3e7"] ;
546 -> 547 ;
548 [label=<Feature_16 &le; 0.5<br/>gini = 0.25<br/>samples = 41<br/>value = [6, 35]<br/>class = [0. 1.]>, fillcolor="#5baee9"] ;
547 -> 548 ;
549 [label=<gini = 0.0<br/>samples = 24<br/>value = [0, 24]<br/>class = [0. 1.]>, fillcolor="#399de5"] ;
548 -> 549 ;
550 [label=<Feature_16 &le; 2.5<br/>gini = 0.457<br/>samples = 17<br/>value = [6, 11]<br/>class = [0. 1.]>, fillcolor="#a5d2f3"] ;
548 -> 550 ;
551 [label=<Feature_13 &le; 4.0<br/>gini = 0.375<br/>samples = 8<br/>value = [6, 2]<br/>class = [0. 1.]>, fillcolor="#eeab7b"] ;
550 -> 551 ;
552 [label=<Feature_19 &le; 1.0<br/>gini = 0.444<br/>samples = 3<br/>value = [1, 2]<br/>class = [0. 1.]>, fillcolor="#9ccef2"] ;
551 -> 552 ;
553 [label=<gini = 0.0<br/>samples = 1<br/>value = [1, 0]<br/>class = [0. 1.]>, fillcolor="#e58139"] ;
552 -> 553 ;
554 [label=<gini = 0.0<br/>samples = 2<br/>value = [0, 2]<br/>class = [0. 1.]>, fillcolor="#399de5"] ;
552 -> 554 ;
555 [label=<gini = 0.0<br/>samples = 5<br/>value = [5, 0]<br/>class = [0. 1.]>, fillcolor="#e58139"] ;
551 -> 555 ;
556 [label=<gini = 0.0<br/>samples = 9<br/>value = [0, 9]<br/>class = [0. 1.]>, fillcolor="#399de5"] ;
550 -> 556 ;
557 [label=<gini = 0.0<br/>samples = 66<br/>value = [0, 66]<br/>class = [0. 1.]>, fillcolor="#399de5"] ;
547 -> 557 ;
558 [label=<Feature_11 &le; 1.5<br/>gini = 0.461<br/>samples = 50<br/>value = [18, 32]<br/>class = [0. 1.]>, fillcolor="#a8d4f4"] ;
546 -> 558 ;
559 [label=<Feature_19 &le; 4.5<br/>gini = 0.473<br/>samples = 26<br/>value = [16, 10]<br/>class = [0. 1.]>, fillcolor="#f5d0b5"] ;
558 -> 559 ;
560 [label=<Feature_6 &le; 1.0<br/>gini = 0.363<br/>samples = 21<br/>value = [16, 5]<br/>class = [0. 1.]>, fillcolor="#eda877"] ;
559 -> 560 ;
561 [label=<Feature_16 &le; 9.0<br/>gini = 0.444<br/>samples = 6<br/>value = [2, 4]<br/>class = [0. 1.]>, fillcolor="#9ccef2"] ;
560 -> 561 ;
562 [label=<gini = 0.0<br/>samples = 4<br/>value = [0, 4]<br/>class = [0. 1.]>, fillcolor="#399de5"] ;
561 -> 562 ;
563 [label=<gini = 0.0<br/>samples = 2<br/>value = [2, 0]<br/>class = [0. 1.]>, fillcolor="#e58139"] ;
561 -> 563 ;
564 [label=<Feature_19 &le; 1.0<br/>gini = 0.124<br/>samples = 15<br/>value = [14, 1]<br/>class = [0. 1.]>, fillcolor="#e78a47"] ;
560 -> 564 ;
565 [label=<gini = 0.0<br/>samples = 12<br/>value = [12, 0]<br/>class = [0. 1.]>, fillcolor="#e58139"] ;
564 -> 565 ;
566 [label=<Feature_17 &le; 3.0<br/>gini = 0.444<br/>samples = 3<br/>value = [2, 1]<br/>class = [0. 1.]>, fillcolor="#f2c09c"] ;
564 -> 566 ;
567 [label=<gini = 0.0<br/>samples = 2<br/>value = [2, 0]<br/>class = [0. 1.]>, fillcolor="#e58139"] ;
566 -> 567 ;
568 [label=<gini = 0.0<br/>samples = 1<br/>value = [0, 1]<br/>class = [0. 1.]>, fillcolor="#399de5"] ;
566 -> 568 ;
569 [label=<gini = 0.0<br/>samples = 5<br/>value = [0, 5]<br/>class = [0. 1.]>, fillcolor="#399de5"] ;
559 -> 569 ;
570 [label=<Feature_8 &le; 6.5<br/>gini = 0.153<br/>samples = 24<br/>value = [2, 22]<br/>class = [0. 1.]>, fillcolor="#4ba6e7"] ;
558 -> 570 ;
571 [label=<Feature_13 &le; 1.0<br/>gini = 0.32<br/>samples = 10<br/>value = [2, 8]<br/>class = [0. 1.]>, fillcolor="#6ab6ec"] ;
570 -> 571 ;
572 [label=<gini = 0.0<br/>samples = 1<br/>value = [1, 0]<br/>class = [0. 1.]>, fillcolor="#e58139"] ;
571 -> 572 ;
573 [label=<Feature_6 &le; 1.0<br/>gini = 0.198<br/>samples = 9<br/>value = [1, 8]<br/>class = [0. 1.]>, fillcolor="#52a9e8"] ;
571 -> 573 ;
574 [label=<gini = 0.0<br/>samples = 1<br/>value = [1, 0]<br/>class = [0. 1.]>, fillcolor="#e58139"] ;
573 -> 574 ;
575 [label=<gini = 0.0<br/>samples = 8<br/>value = [0, 8]<br/>class = [0. 1.]>, fillcolor="#399de5"] ;
573 -> 575 ;
576 [label=<gini = 0.0<br/>samples = 14<br/>value = [0, 14]<br/>class = [0. 1.]>, fillcolor="#399de5"] ;
570 -> 576 ;
577 [label=<Feature_10 &le; 7.0<br/>gini = 0.493<br/>samples = 95<br/>value = [53, 42]<br/>class = [0. 1.]>, fillcolor="#fae5d6"] ;
545 -> 577 ;
578 [label=<Feature_2 &le; 16.0<br/>gini = 0.24<br/>samples = 43<br/>value = [6, 37]<br/>class = [0. 1.]>, fillcolor="#59ade9"] ;
577 -> 578 ;
579 [label=<Feature_6 &le; 9.5<br/>gini = 0.117<br/>samples = 32<br/>value = [2, 30]<br/>class = [0. 1.]>, fillcolor="#46a4e7"] ;
578 -> 579 ;
580 [label=<gini = 0.0<br/>samples = 24<br/>value = [0, 24]<br/>class = [0. 1.]>, fillcolor="#399de5"] ;
579 -> 580 ;
581 [label=<Feature_13 &le; 5.0<br/>gini = 0.375<br/>samples = 8<br/>value = [2, 6]<br/>class = [0. 1.]>, fillcolor="#7bbeee"] ;
579 -> 581 ;
582 [label=<gini = 0.0<br/>samples = 2<br/>value = [2, 0]<br/>class = [0. 1.]>, fillcolor="#e58139"] ;
581 -> 582 ;
583 [label=<gini = 0.0<br/>samples = 6<br/>value = [0, 6]<br/>class = [0. 1.]>, fillcolor="#399de5"] ;
581 -> 583 ;
584 [label=<Feature_2 &le; 19.5<br/>gini = 0.463<br/>samples = 11<br/>value = [4, 7]<br/>class = [0. 1.]>, fillcolor="#aad5f4"] ;
578 -> 584 ;
585 [label=<Feature_9 &le; 16.5<br/>gini = 0.5<br/>samples = 8<br/>value = [4, 4]<br/>class = [0. 1.]>, fillcolor="#ffffff"] ;
584 -> 585 ;
586 [label=<Feature_13 &le; 1.0<br/>gini = 0.444<br/>samples = 6<br/>value = [4, 2]<br/>class = [0. 1.]>, fillcolor="#f2c09c"] ;
585 -> 586 ;
587 [label=<gini = 0.0<br/>samples = 3<br/>value = [3, 0]<br/>class = [0. 1.]>, fillcolor="#e58139"] ;
586 -> 587 ;
588 [label=<Feature_19 &le; 4.5<br/>gini = 0.444<br/>samples = 3<br/>value = [1, 2]<br/>class = [0. 1.]>, fillcolor="#9ccef2"] ;
586 -> 588 ;
589 [label=<gini = 0.0<br/>samples = 1<br/>value = [1, 0]<br/>class = [0. 1.]>, fillcolor="#e58139"] ;
588 -> 589 ;
590 [label=<gini = 0.0<br/>samples = 2<br/>value = [0, 2]<br/>class = [0. 1.]>, fillcolor="#399de5"] ;
588 -> 590 ;
591 [label=<gini = 0.0<br/>samples = 2<br/>value = [0, 2]<br/>class = [0. 1.]>, fillcolor="#399de5"] ;
585 -> 591 ;
592 [label=<gini = 0.0<br/>samples = 3<br/>value = [0, 3]<br/>class = [0. 1.]>, fillcolor="#399de5"] ;
584 -> 592 ;
593 [label=<Feature_14 &le; 7.0<br/>gini = 0.174<br/>samples = 52<br/>value = [47, 5]<br/>class = [0. 1.]>, fillcolor="#e88e4e"] ;
577 -> 593 ;
594 [label=<gini = 0.0<br/>samples = 27<br/>value = [27, 0]<br/>class = [0. 1.]>, fillcolor="#e58139"] ;
593 -> 594 ;
595 [label=<Feature_14 &le; 13.0<br/>gini = 0.32<br/>samples = 25<br/>value = [20, 5]<br/>class = [0. 1.]>, fillcolor="#eca06a"] ;
593 -> 595 ;
596 [label=<Feature_8 &le; 6.5<br/>gini = 0.5<br/>samples = 10<br/>value = [5, 5]<br/>class = [0. 1.]>, fillcolor="#ffffff"] ;
595 -> 596 ;
597 [label=<gini = 0.0<br/>samples = 3<br/>value = [3, 0]<br/>class = [0. 1.]>, fillcolor="#e58139"] ;
596 -> 597 ;
598 [label=<Feature_7 &le; 1.5<br/>gini = 0.408<br/>samples = 7<br/>value = [2, 5]<br/>class = [0. 1.]>, fillcolor="#88c4ef"] ;
596 -> 598 ;
599 [label=<Feature_3 &le; 3.5<br/>gini = 0.444<br/>samples = 3<br/>value = [2, 1]<br/>class = [0. 1.]>, fillcolor="#f2c09c"] ;
598 -> 599 ;
600 [label=<gini = 0.0<br/>samples = 1<br/>value = [0, 1]<br/>class = [0. 1.]>, fillcolor="#399de5"] ;
599 -> 600 ;
601 [label=<gini = 0.0<br/>samples = 2<br/>value = [2, 0]<br/>class = [0. 1.]>, fillcolor="#e58139"] ;
599 -> 601 ;
602 [label=<gini = 0.0<br/>samples = 4<br/>value = [0, 4]<br/>class = [0. 1.]>, fillcolor="#399de5"] ;
598 -> 602 ;
603 [label=<gini = 0.0<br/>samples = 15<br/>value = [15, 0]<br/>class = [0. 1.]>, fillcolor="#e58139"] ;
595 -> 603 ;
604 [label=<Feature_10 &le; 7.0<br/>gini = 0.26<br/>samples = 319<br/>value = [270, 49]<br/>class = [0. 1.]>, fillcolor="#ea985d"] ;
504 -> 604 ;
605 [label=<Feature_14 &le; 2.0<br/>gini = 0.473<br/>samples = 128<br/>value = [79, 49]<br/>class = [0. 1.]>, fillcolor="#f5cfb4"] ;
604 -> 605 ;
606 [label=<Feature_15 &le; 8.0<br/>gini = 0.088<br/>samples = 65<br/>value = [62, 3]<br/>class = [0. 1.]>, fillcolor="#e68743"] ;
605 -> 606 ;
607 [label=<gini = 0.0<br/>samples = 38<br/>value = [38, 0]<br/>class = [0. 1.]>, fillcolor="#e58139"] ;
606 -> 607 ;
608 [label=<Feature_9 &le; 1.0<br/>gini = 0.198<br/>samples = 27<br/>value = [24, 3]<br/>class = [0. 1.]>, fillcolor="#e89152"] ;
606 -> 608 ;
609 [label=<Feature_13 &le; 5.0<br/>gini = 0.444<br/>samples = 6<br/>value = [4, 2]<br/>class = [0. 1.]>, fillcolor="#f2c09c"] ;
608 -> 609 ;
610 [label=<gini = 0.0<br/>samples = 4<br/>value = [4, 0]<br/>class = [0. 1.]>, fillcolor="#e58139"] ;
609 -> 610 ;
611 [label=<gini = 0.0<br/>samples = 2<br/>value = [0, 2]<br/>class = [0. 1.]>, fillcolor="#399de5"] ;
609 -> 611 ;
612 [label=<Feature_8 &le; 6.5<br/>gini = 0.091<br/>samples = 21<br/>value = [20, 1]<br/>class = [0. 1.]>, fillcolor="#e68743"] ;
608 -> 612 ;
613 [label=<Feature_9 &le; 12.0<br/>gini = 0.278<br/>samples = 6<br/>value = [5, 1]<br/>class = [0. 1.]>, fillcolor="#ea9a61"] ;
612 -> 613 ;
614 [label=<gini = 0.0<br/>samples = 5<br/>value = [5, 0]<br/>class = [0. 1.]>, fillcolor="#e58139"] ;
613 -> 614 ;
615 [label=<gini = 0.0<br/>samples = 1<br/>value = [0, 1]<br/>class = [0. 1.]>, fillcolor="#399de5"] ;
613 -> 615 ;
616 [label=<gini = 0.0<br/>samples = 15<br/>value = [15, 0]<br/>class = [0. 1.]>, fillcolor="#e58139"] ;
612 -> 616 ;
617 [label=<Feature_14 &le; 13.0<br/>gini = 0.394<br/>samples = 63<br/>value = [17, 46]<br/>class = [0. 1.]>, fillcolor="#82c1ef"] ;
605 -> 617 ;
618 [label=<gini = 0.0<br/>samples = 46<br/>value = [0, 46]<br/>class = [0. 1.]>, fillcolor="#399de5"] ;
617 -> 618 ;
619 [label=<gini = 0.0<br/>samples = 17<br/>value = [17, 0]<br/>class = [0. 1.]>, fillcolor="#e58139"] ;
617 -> 619 ;
620 [label=<gini = 0.0<br/>samples = 191<br/>value = [191, 0]<br/>class = [0. 1.]>, fillcolor="#e58139"] ;
604 -> 620 ;
621 [label=<Feature_15 &le; 14.0<br/>gini = 0.361<br/>samples = 292<br/>value = [69, 223]<br/>class = [0. 1.]>, fillcolor="#76bbed"] ;
503 -> 621 ;
622 [label=<Feature_7 &le; 1.5<br/>gini = 0.163<br/>samples = 235<br/>value = [21, 214]<br/>class = [0. 1.]>, fillcolor="#4ca7e8"] ;
621 -> 622 ;
623 [label=<Feature_14 &le; 13.0<br/>gini = 0.036<br/>samples = 165<br/>value = [3, 162]<br/>class = [0. 1.]>, fillcolor="#3d9fe5"] ;
622 -> 623 ;
624 [label=<Feature_9 &le; 16.5<br/>gini = 0.014<br/>samples = 142<br/>value = [1, 141]<br/>class = [0. 1.]>, fillcolor="#3a9ee5"] ;
623 -> 624 ;
625 [label=<gini = 0.0<br/>samples = 119<br/>value = [0, 119]<br/>class = [0. 1.]>, fillcolor="#399de5"] ;
624 -> 625 ;
626 [label=<Feature_14 &le; 7.0<br/>gini = 0.083<br/>samples = 23<br/>value = [1, 22]<br/>class = [0. 1.]>, fillcolor="#42a1e6"] ;
624 -> 626 ;
627 [label=<gini = 0.0<br/>samples = 20<br/>value = [0, 20]<br/>class = [0. 1.]>, fillcolor="#399de5"] ;
626 -> 627 ;
628 [label=<Feature_3 &le; 5.5<br/>gini = 0.444<br/>samples = 3<br/>value = [1, 2]<br/>class = [0. 1.]>, fillcolor="#9ccef2"] ;
626 -> 628 ;
629 [label=<gini = 0.0<br/>samples = 2<br/>value = [0, 2]<br/>class = [0. 1.]>, fillcolor="#399de5"] ;
628 -> 629 ;
630 [label=<gini = 0.0<br/>samples = 1<br/>value = [1, 0]<br/>class = [0. 1.]>, fillcolor="#e58139"] ;
628 -> 630 ;
631 [label=<Feature_10 &le; 7.0<br/>gini = 0.159<br/>samples = 23<br/>value = [2, 21]<br/>class = [0. 1.]>, fillcolor="#4ca6e7"] ;
623 -> 631 ;
632 [label=<Feature_4 &le; 7.0<br/>gini = 0.5<br/>samples = 4<br/>value = [2, 2]<br/>class = [0. 1.]>, fillcolor="#ffffff"] ;
631 -> 632 ;
633 [label=<gini = 0.0<br/>samples = 2<br/>value = [0, 2]<br/>class = [0. 1.]>, fillcolor="#399de5"] ;
632 -> 633 ;
634 [label=<gini = 0.0<br/>samples = 2<br/>value = [2, 0]<br/>class = [0. 1.]>, fillcolor="#e58139"] ;
632 -> 634 ;
635 [label=<gini = 0.0<br/>samples = 19<br/>value = [0, 19]<br/>class = [0. 1.]>, fillcolor="#399de5"] ;
631 -> 635 ;
636 [label=<Feature_3 &le; 3.5<br/>gini = 0.382<br/>samples = 70<br/>value = [18, 52]<br/>class = [0. 1.]>, fillcolor="#7ebfee"] ;
622 -> 636 ;
637 [label=<Feature_19 &le; 4.5<br/>gini = 0.498<br/>samples = 34<br/>value = [18, 16]<br/>class = [0. 1.]>, fillcolor="#fcf1e9"] ;
636 -> 637 ;
638 [label=<Feature_11 &le; 1.5<br/>gini = 0.413<br/>samples = 24<br/>value = [17, 7]<br/>class = [0. 1.]>, fillcolor="#f0b58b"] ;
637 -> 638 ;
639 [label=<gini = 0.0<br/>samples = 12<br/>value = [12, 0]<br/>class = [0. 1.]>, fillcolor="#e58139"] ;
638 -> 639 ;
640 [label=<Feature_8 &le; 6.5<br/>gini = 0.486<br/>samples = 12<br/>value = [5, 7]<br/>class = [0. 1.]>, fillcolor="#c6e3f8"] ;
638 -> 640 ;
641 [label=<Feature_19 &le; 1.0<br/>gini = 0.408<br/>samples = 7<br/>value = [5, 2]<br/>class = [0. 1.]>, fillcolor="#efb388"] ;
640 -> 641 ;
642 [label=<gini = 0.0<br/>samples = 5<br/>value = [5, 0]<br/>class = [0. 1.]>, fillcolor="#e58139"] ;
641 -> 642 ;
643 [label=<gini = 0.0<br/>samples = 2<br/>value = [0, 2]<br/>class = [0. 1.]>, fillcolor="#399de5"] ;
641 -> 643 ;
644 [label=<gini = 0.0<br/>samples = 5<br/>value = [0, 5]<br/>class = [0. 1.]>, fillcolor="#399de5"] ;
640 -> 644 ;
645 [label=<Feature_14 &le; 13.0<br/>gini = 0.18<br/>samples = 10<br/>value = [1, 9]<br/>class = [0. 1.]>, fillcolor="#4fa8e8"] ;
637 -> 645 ;
646 [label=<gini = 0.0<br/>samples = 7<br/>value = [0, 7]<br/>class = [0. 1.]>, fillcolor="#399de5"] ;
645 -> 646 ;
647 [label=<Feature_15 &le; 2.0<br/>gini = 0.444<br/>samples = 3<br/>value = [1, 2]<br/>class = [0. 1.]>, fillcolor="#9ccef2"] ;
645 -> 647 ;
648 [label=<gini = 0.0<br/>samples = 1<br/>value = [1, 0]<br/>class = [0. 1.]>, fillcolor="#e58139"] ;
647 -> 648 ;
649 [label=<gini = 0.0<br/>samples = 2<br/>value = [0, 2]<br/>class = [0. 1.]>, fillcolor="#399de5"] ;
647 -> 649 ;
650 [label=<gini = 0.0<br/>samples = 36<br/>value = [0, 36]<br/>class = [0. 1.]>, fillcolor="#399de5"] ;
636 -> 650 ;
651 [label=<Feature_10 &le; 7.0<br/>gini = 0.266<br/>samples = 57<br/>value = [48, 9]<br/>class = [0. 1.]>, fillcolor="#ea995e"] ;
621 -> 651 ;
652 [label=<Feature_14 &le; 2.0<br/>gini = 0.453<br/>samples = 26<br/>value = [17, 9]<br/>class = [0. 1.]>, fillcolor="#f3c4a2"] ;
651 -> 652 ;
653 [label=<gini = 0.0<br/>samples = 13<br/>value = [13, 0]<br/>class = [0. 1.]>, fillcolor="#e58139"] ;
652 -> 653 ;
654 [label=<Feature_14 &le; 13.0<br/>gini = 0.426<br/>samples = 13<br/>value = [4, 9]<br/>class = [0. 1.]>, fillcolor="#91c9f1"] ;
652 -> 654 ;
655 [label=<gini = 0.0<br/>samples = 9<br/>value = [0, 9]<br/>class = [0. 1.]>, fillcolor="#399de5"] ;
654 -> 655 ;
656 [label=<gini = 0.0<br/>samples = 4<br/>value = [4, 0]<br/>class = [0. 1.]>, fillcolor="#e58139"] ;
654 -> 656 ;
657 [label=<gini = 0.0<br/>samples = 31<br/>value = [31, 0]<br/>class = [0. 1.]>, fillcolor="#e58139"] ;
651 -> 657 ;
658 [label=<Feature_19 &le; 4.5<br/>gini = 0.495<br/>samples = 3495<br/>value = [1930, 1565]<br/>class = [0. 1.]>, fillcolor="#fae7da"] ;
4 -> 658 ;
659 [label=<Feature_3 &le; 9.0<br/>gini = 0.449<br/>samples = 2399<br/>value = [1581, 818]<br/>class = [0. 1.]>, fillcolor="#f2c29f"] ;
658 -> 659 ;
660 [label=<Feature_3 &le; 3.5<br/>gini = 0.49<br/>samples = 1673<br/>value = [957, 716]<br/>class = [0. 1.]>, fillcolor="#f8dfcd"] ;
659 -> 660 ;
661 [label=<Feature_11 &le; 1.5<br/>gini = 0.352<br/>samples = 966<br/>value = [746, 220]<br/>class = [0. 1.]>, fillcolor="#eda673"] ;
660 -> 661 ;
662 [label=<Feature_19 &le; 1.0<br/>gini = 0.172<br/>samples = 400<br/>value = [362, 38]<br/>class = [0. 1.]>, fillcolor="#e88e4e"] ;
661 -> 662 ;
663 [label=<Feature_2 &le; 16.0<br/>gini = 0.058<br/>samples = 233<br/>value = [226, 7]<br/>class = [0. 1.]>, fillcolor="#e6853f"] ;
662 -> 663 ;
664 [label=<Feature_2 &le; 7.5<br/>gini = 0.011<br/>samples = 173<br/>value = [172, 1]<br/>class = [0. 1.]>, fillcolor="#e5823a"] ;
663 -> 664 ;
665 [label=<gini = 0.0<br/>samples = 131<br/>value = [131, 0]<br/>class = [0. 1.]>, fillcolor="#e58139"] ;
664 -> 665 ;
666 [label=<Feature_13 &le; 1.0<br/>gini = 0.046<br/>samples = 42<br/>value = [41, 1]<br/>class = [0. 1.]>, fillcolor="#e6843e"] ;
664 -> 666 ;
667 [label=<Feature_8 &le; 6.5<br/>gini = 0.142<br/>samples = 13<br/>value = [12, 1]<br/>class = [0. 1.]>, fillcolor="#e78c49"] ;
666 -> 667 ;
668 [label=<Feature_20 &le; 1.0<br/>gini = 0.444<br/>samples = 3<br/>value = [2, 1]<br/>class = [0. 1.]>, fillcolor="#f2c09c"] ;
667 -> 668 ;
669 [label=<gini = 0.0<br/>samples = 1<br/>value = [0, 1]<br/>class = [0. 1.]>, fillcolor="#399de5"] ;
668 -> 669 ;
670 [label=<gini = 0.0<br/>samples = 2<br/>value = [2, 0]<br/>class = [0. 1.]>, fillcolor="#e58139"] ;
668 -> 670 ;
671 [label=<gini = 0.0<br/>samples = 10<br/>value = [10, 0]<br/>class = [0. 1.]>, fillcolor="#e58139"] ;
667 -> 671 ;
672 [label=<gini = 0.0<br/>samples = 29<br/>value = [29, 0]<br/>class = [0. 1.]>, fillcolor="#e58139"] ;
666 -> 672 ;
673 [label=<Feature_6 &le; 9.5<br/>gini = 0.18<br/>samples = 60<br/>value = [54, 6]<br/>class = [0. 1.]>, fillcolor="#e88f4f"] ;
663 -> 673 ;
674 [label=<Feature_17 &le; 3.0<br/>gini = 0.083<br/>samples = 46<br/>value = [44, 2]<br/>class = [0. 1.]>, fillcolor="#e68742"] ;
673 -> 674 ;
675 [label=<Feature_9 &le; 6.5<br/>gini = 0.198<br/>samples = 18<br/>value = [16, 2]<br/>class = [0. 1.]>, fillcolor="#e89152"] ;
674 -> 675 ;
676 [label=<Feature_12 &le; 7.5<br/>gini = 0.408<br/>samples = 7<br/>value = [5, 2]<br/>class = [0. 1.]>, fillcolor="#efb388"] ;
675 -> 676 ;
677 [label=<gini = 0.0<br/>samples = 4<br/>value = [4, 0]<br/>class = [0. 1.]>, fillcolor="#e58139"] ;
676 -> 677 ;
678 [label=<Feature_16 &le; 16.5<br/>gini = 0.444<br/>samples = 3<br/>value = [1, 2]<br/>class = [0. 1.]>, fillcolor="#9ccef2"] ;
676 -> 678 ;
679 [label=<gini = 0.0<br/>samples = 2<br/>value = [0, 2]<br/>class = [0. 1.]>, fillcolor="#399de5"] ;
678 -> 679 ;
680 [label=<gini = 0.0<br/>samples = 1<br/>value = [1, 0]<br/>class = [0. 1.]>, fillcolor="#e58139"] ;
678 -> 680 ;
681 [label=<gini = 0.0<br/>samples = 11<br/>value = [11, 0]<br/>class = [0. 1.]>, fillcolor="#e58139"] ;
675 -> 681 ;
682 [label=<gini = 0.0<br/>samples = 28<br/>value = [28, 0]<br/>class = [0. 1.]>, fillcolor="#e58139"] ;
674 -> 682 ;
683 [label=<Feature_16 &le; 14.5<br/>gini = 0.408<br/>samples = 14<br/>value = [10, 4]<br/>class = [0. 1.]>, fillcolor="#efb388"] ;
673 -> 683 ;
684 [label=<gini = 0.0<br/>samples = 8<br/>value = [8, 0]<br/>class = [0. 1.]>, fillcolor="#e58139"] ;
683 -> 684 ;
685 [label=<Feature_13 &le; 1.0<br/>gini = 0.444<br/>samples = 6<br/>value = [2, 4]<br/>class = [0. 1.]>, fillcolor="#9ccef2"] ;
683 -> 685 ;
686 [label=<Feature_14 &le; 2.0<br/>gini = 0.444<br/>samples = 3<br/>value = [2, 1]<br/>class = [0. 1.]>, fillcolor="#f2c09c"] ;
685 -> 686 ;
687 [label=<gini = 0.0<br/>samples = 1<br/>value = [0, 1]<br/>class = [0. 1.]>, fillcolor="#399de5"] ;
686 -> 687 ;
688 [label=<gini = 0.0<br/>samples = 2<br/>value = [2, 0]<br/>class = [0. 1.]>, fillcolor="#e58139"] ;
686 -> 688 ;
689 [label=<gini = 0.0<br/>samples = 3<br/>value = [0, 3]<br/>class = [0. 1.]>, fillcolor="#399de5"] ;
685 -> 689 ;
690 [label=<Feature_7 &le; 12.0<br/>gini = 0.302<br/>samples = 167<br/>value = [136, 31]<br/>class = [0. 1.]>, fillcolor="#eb9e66"] ;
662 -> 690 ;
691 [label=<Feature_9 &le; 6.5<br/>gini = 0.065<br/>samples = 89<br/>value = [86, 3]<br/>class = [0. 1.]>, fillcolor="#e68540"] ;
690 -> 691 ;
692 [label=<gini = 0.0<br/>samples = 59<br/>value = [59, 0]<br/>class = [0. 1.]>, fillcolor="#e58139"] ;
691 -> 692 ;
693 [label=<Feature_2 &le; 16.0<br/>gini = 0.18<br/>samples = 30<br/>value = [27, 3]<br/>class = [0. 1.]>, fillcolor="#e88f4f"] ;
691 -> 693 ;
694 [label=<gini = 0.0<br/>samples = 20<br/>value = [20, 0]<br/>class = [0. 1.]>, fillcolor="#e58139"] ;
693 -> 694 ;
695 [label=<Feature_10 &le; 7.0<br/>gini = 0.42<br/>samples = 10<br/>value = [7, 3]<br/>class = [0. 1.]>, fillcolor="#f0b78e"] ;
693 -> 695 ;
696 [label=<gini = 0.0<br/>samples = 6<br/>value = [6, 0]<br/>class = [0. 1.]>, fillcolor="#e58139"] ;
695 -> 696 ;
697 [label=<Feature_4 &le; 14.5<br/>gini = 0.375<br/>samples = 4<br/>value = [1, 3]<br/>class = [0. 1.]>, fillcolor="#7bbeee"] ;
695 -> 697 ;
698 [label=<gini = 0.0<br/>samples = 3<br/>value = [0, 3]<br/>class = [0. 1.]>, fillcolor="#399de5"] ;
697 -> 698 ;
699 [label=<gini = 0.0<br/>samples = 1<br/>value = [1, 0]<br/>class = [0. 1.]>, fillcolor="#e58139"] ;
697 -> 699 ;
700 [label=<Feature_8 &le; 6.5<br/>gini = 0.46<br/>samples = 78<br/>value = [50, 28]<br/>class = [0. 1.]>, fillcolor="#f4c8a8"] ;
690 -> 700 ;
701 [label=<Feature_9 &le; 1.0<br/>gini = 0.108<br/>samples = 35<br/>value = [33, 2]<br/>class = [0. 1.]>, fillcolor="#e78945"] ;
700 -> 701 ;
702 [label=<Feature_13 &le; 1.0<br/>gini = 0.298<br/>samples = 11<br/>value = [9, 2]<br/>class = [0. 1.]>, fillcolor="#eb9d65"] ;
701 -> 702 ;
703 [label=<Feature_17 &le; 3.0<br/>gini = 0.5<br/>samples = 4<br/>value = [2, 2]<br/>class = [0. 1.]>, fillcolor="#ffffff"] ;
702 -> 703 ;
704 [label=<gini = 0.0<br/>samples = 2<br/>value = [2, 0]<br/>class = [0. 1.]>, fillcolor="#e58139"] ;
703 -> 704 ;
705 [label=<gini = 0.0<br/>samples = 2<br/>value = [0, 2]<br/>class = [0. 1.]>, fillcolor="#399de5"] ;
703 -> 705 ;
706 [label=<gini = 0.0<br/>samples = 7<br/>value = [7, 0]<br/>class = [0. 1.]>, fillcolor="#e58139"] ;
702 -> 706 ;
707 [label=<gini = 0.0<br/>samples = 24<br/>value = [24, 0]<br/>class = [0. 1.]>, fillcolor="#e58139"] ;
701 -> 707 ;
708 [label=<Feature_17 &le; 3.0<br/>gini = 0.478<br/>samples = 43<br/>value = [17, 26]<br/>class = [0. 1.]>, fillcolor="#baddf6"] ;
700 -> 708 ;
709 [label=<Feature_6 &le; 1.0<br/>gini = 0.43<br/>samples = 16<br/>value = [11, 5]<br/>class = [0. 1.]>, fillcolor="#f1ba93"] ;
708 -> 709 ;
710 [label=<gini = 0.0<br/>samples = 5<br/>value = [0, 5]<br/>class = [0. 1.]>, fillcolor="#399de5"] ;
709 -> 710 ;
711 [label=<gini = 0.0<br/>samples = 11<br/>value = [11, 0]<br/>class = [0. 1.]>, fillcolor="#e58139"] ;
709 -> 711 ;
712 [label=<Feature_14 &le; 13.0<br/>gini = 0.346<br/>samples = 27<br/>value = [6, 21]<br/>class = [0. 1.]>, fillcolor="#72b9ec"] ;
708 -> 712 ;
713 [label=<Feature_13 &le; 5.0<br/>gini = 0.278<br/>samples = 24<br/>value = [4, 20]<br/>class = [0. 1.]>, fillcolor="#61b1ea"] ;
712 -> 713 ;
714 [label=<gini = 0.0<br/>samples = 13<br/>value = [0, 13]<br/>class = [0. 1.]>, fillcolor="#399de5"] ;
713 -> 714 ;
715 [label=<Feature_18 &le; 2.0<br/>gini = 0.463<br/>samples = 11<br/>value = [4, 7]<br/>class = [0. 1.]>, fillcolor="#aad5f4"] ;
713 -> 715 ;
716 [label=<gini = 0.0<br/>samples = 6<br/>value = [0, 6]<br/>class = [0. 1.]>, fillcolor="#399de5"] ;
715 -> 716 ;
717 [label=<Feature_14 &le; 7.0<br/>gini = 0.32<br/>samples = 5<br/>value = [4, 1]<br/>class = [0. 1.]>, fillcolor="#eca06a"] ;
715 -> 717 ;
718 [label=<gini = 0.0<br/>samples = 4<br/>value = [4, 0]<br/>class = [0. 1.]>, fillcolor="#e58139"] ;
717 -> 718 ;
719 [label=<gini = 0.0<br/>samples = 1<br/>value = [0, 1]<br/>class = [0. 1.]>, fillcolor="#399de5"] ;
717 -> 719 ;
720 [label=<Feature_20 &le; 1.0<br/>gini = 0.444<br/>samples = 3<br/>value = [2, 1]<br/>class = [0. 1.]>, fillcolor="#f2c09c"] ;
712 -> 720 ;
721 [label=<gini = 0.0<br/>samples = 1<br/>value = [0, 1]<br/>class = [0. 1.]>, fillcolor="#399de5"] ;
720 -> 721 ;
722 [label=<gini = 0.0<br/>samples = 2<br/>value = [2, 0]<br/>class = [0. 1.]>, fillcolor="#e58139"] ;
720 -> 722 ;
723 [label=<Feature_11 &le; 6.0<br/>gini = 0.436<br/>samples = 566<br/>value = [384, 182]<br/>class = [0. 1.]>, fillcolor="#f1bd97"] ;
661 -> 723 ;
724 [label=<Feature_18 &le; 14.0<br/>gini = 0.403<br/>samples = 175<br/>value = [49, 126]<br/>class = [0. 1.]>, fillcolor="#86c3ef"] ;
723 -> 724 ;
725 [label=<Feature_15 &le; 14.0<br/>gini = 0.313<br/>samples = 134<br/>value = [26, 108]<br/>class = [0. 1.]>, fillcolor="#69b5eb"] ;
724 -> 725 ;
726 [label=<Feature_8 &le; 6.5<br/>gini = 0.201<br/>samples = 106<br/>value = [12, 94]<br/>class = [0. 1.]>, fillcolor="#52aae8"] ;
725 -> 726 ;
727 [label=<Feature_9 &le; 16.5<br/>gini = 0.375<br/>samples = 36<br/>value = [9, 27]<br/>class = [0. 1.]>, fillcolor="#7bbeee"] ;
726 -> 727 ;
728 [label=<Feature_20 &le; 10.0<br/>gini = 0.245<br/>samples = 28<br/>value = [4, 24]<br/>class = [0. 1.]>, fillcolor="#5aade9"] ;
727 -> 728 ;
729 [label=<Feature_2 &le; 3.0<br/>gini = 0.147<br/>samples = 25<br/>value = [2, 23]<br/>class = [0. 1.]>, fillcolor="#4aa6e7"] ;
728 -> 729 ;
730 [label=<Feature_13 &le; 5.0<br/>gini = 0.375<br/>samples = 8<br/>value = [2, 6]<br/>class = [0. 1.]>, fillcolor="#7bbeee"] ;
729 -> 730 ;
731 [label=<gini = 0.0<br/>samples = 5<br/>value = [0, 5]<br/>class = [0. 1.]>, fillcolor="#399de5"] ;
730 -> 731 ;
732 [label=<Feature_12 &le; 16.5<br/>gini = 0.444<br/>samples = 3<br/>value = [2, 1]<br/>class = [0. 1.]>, fillcolor="#f2c09c"] ;
730 -> 732 ;
733 [label=<gini = 0.0<br/>samples = 1<br/>value = [0, 1]<br/>class = [0. 1.]>, fillcolor="#399de5"] ;
732 -> 733 ;
734 [label=<gini = 0.0<br/>samples = 2<br/>value = [2, 0]<br/>class = [0. 1.]>, fillcolor="#e58139"] ;
732 -> 734 ;
735 [label=<gini = 0.0<br/>samples = 17<br/>value = [0, 17]<br/>class = [0. 1.]>, fillcolor="#399de5"] ;
729 -> 735 ;
736 [label=<Feature_20 &le; 12.0<br/>gini = 0.444<br/>samples = 3<br/>value = [2, 1]<br/>class = [0. 1.]>, fillcolor="#f2c09c"] ;
728 -> 736 ;
737 [label=<gini = 0.0<br/>samples = 2<br/>value = [2, 0]<br/>class = [0. 1.]>, fillcolor="#e58139"] ;
736 -> 737 ;
738 [label=<gini = 0.0<br/>samples = 1<br/>value = [0, 1]<br/>class = [0. 1.]>, fillcolor="#399de5"] ;
736 -> 738 ;
739 [label=<Feature_15 &le; 2.0<br/>gini = 0.469<br/>samples = 8<br/>value = [5, 3]<br/>class = [0. 1.]>, fillcolor="#f5cdb0"] ;
727 -> 739 ;
740 [label=<Feature_20 &le; 10.0<br/>gini = 0.375<br/>samples = 4<br/>value = [1, 3]<br/>class = [0. 1.]>, fillcolor="#7bbeee"] ;
739 -> 740 ;
741 [label=<gini = 0.0<br/>samples = 3<br/>value = [0, 3]<br/>class = [0. 1.]>, fillcolor="#399de5"] ;
740 -> 741 ;
742 [label=<gini = 0.0<br/>samples = 1<br/>value = [1, 0]<br/>class = [0. 1.]>, fillcolor="#e58139"] ;
740 -> 742 ;
743 [label=<gini = 0.0<br/>samples = 4<br/>value = [4, 0]<br/>class = [0. 1.]>, fillcolor="#e58139"] ;
739 -> 743 ;
744 [label=<Feature_20 &le; 10.0<br/>gini = 0.082<br/>samples = 70<br/>value = [3, 67]<br/>class = [0. 1.]>, fillcolor="#42a1e6"] ;
726 -> 744 ;
745 [label=<gini = 0.0<br/>samples = 50<br/>value = [0, 50]<br/>class = [0. 1.]>, fillcolor="#399de5"] ;
744 -> 745 ;
746 [label=<Feature_18 &le; 2.0<br/>gini = 0.255<br/>samples = 20<br/>value = [3, 17]<br/>class = [0. 1.]>, fillcolor="#5caeea"] ;
744 -> 746 ;
747 [label=<Feature_4 &le; 15.5<br/>gini = 0.469<br/>samples = 8<br/>value = [3, 5]<br/>class = [0. 1.]>, fillcolor="#b0d8f5"] ;
746 -> 747 ;
748 [label=<Feature_20 &le; 12.0<br/>gini = 0.32<br/>samples = 5<br/>value = [1, 4]<br/>class = [0. 1.]>, fillcolor="#6ab6ec"] ;
747 -> 748 ;
749 [label=<Feature_15 &le; 6.0<br/>gini = 0.5<br/>samples = 2<br/>value = [1, 1]<br/>class = [0. 1.]>, fillcolor="#ffffff"] ;
748 -> 749 ;
750 [label=<gini = 0.0<br/>samples = 1<br/>value = [0, 1]<br/>class = [0. 1.]>, fillcolor="#399de5"] ;
749 -> 750 ;
751 [label=<gini = 0.0<br/>samples = 1<br/>value = [1, 0]<br/>class = [0. 1.]>, fillcolor="#e58139"] ;
749 -> 751 ;
752 [label=<gini = 0.0<br/>samples = 3<br/>value = [0, 3]<br/>class = [0. 1.]>, fillcolor="#399de5"] ;
748 -> 752 ;
753 [label=<Feature_2 &le; 4.5<br/>gini = 0.444<br/>samples = 3<br/>value = [2, 1]<br/>class = [0. 1.]>, fillcolor="#f2c09c"] ;
747 -> 753 ;
754 [label=<gini = 0.0<br/>samples = 1<br/>value = [0, 1]<br/>class = [0. 1.]>, fillcolor="#399de5"] ;
753 -> 754 ;
755 [label=<gini = 0.0<br/>samples = 2<br/>value = [2, 0]<br/>class = [0. 1.]>, fillcolor="#e58139"] ;
753 -> 755 ;
756 [label=<gini = 0.0<br/>samples = 12<br/>value = [0, 12]<br/>class = [0. 1.]>, fillcolor="#399de5"] ;
746 -> 756 ;
757 [label=<Feature_12 &le; 16.5<br/>gini = 0.5<br/>samples = 28<br/>value = [14, 14]<br/>class = [0. 1.]>, fillcolor="#ffffff"] ;
725 -> 757 ;
758 [label=<Feature_14 &le; 2.0<br/>gini = 0.432<br/>samples = 19<br/>value = [6, 13]<br/>class = [0. 1.]>, fillcolor="#94caf1"] ;
757 -> 758 ;
759 [label=<Feature_18 &le; 6.0<br/>gini = 0.32<br/>samples = 5<br/>value = [4, 1]<br/>class = [0. 1.]>, fillcolor="#eca06a"] ;
758 -> 759 ;
760 [label=<gini = 0.0<br/>samples = 4<br/>value = [4, 0]<br/>class = [0. 1.]>, fillcolor="#e58139"] ;
759 -> 760 ;
761 [label=<gini = 0.0<br/>samples = 1<br/>value = [0, 1]<br/>class = [0. 1.]>, fillcolor="#399de5"] ;
759 -> 761 ;
762 [label=<Feature_13 &le; 5.5<br/>gini = 0.245<br/>samples = 14<br/>value = [2, 12]<br/>class = [0. 1.]>, fillcolor="#5aade9"] ;
758 -> 762 ;
763 [label=<gini = 0.0<br/>samples = 10<br/>value = [0, 10]<br/>class = [0. 1.]>, fillcolor="#399de5"] ;
762 -> 763 ;
764 [label=<Feature_7 &le; 12.0<br/>gini = 0.5<br/>samples = 4<br/>value = [2, 2]<br/>class = [0. 1.]>, fillcolor="#ffffff"] ;
762 -> 764 ;
765 [label=<gini = 0.0<br/>samples = 2<br/>value = [2, 0]<br/>class = [0. 1.]>, fillcolor="#e58139"] ;
764 -> 765 ;
766 [label=<gini = 0.0<br/>samples = 2<br/>value = [0, 2]<br/>class = [0. 1.]>, fillcolor="#399de5"] ;
764 -> 766 ;
767 [label=<Feature_9 &le; 16.5<br/>gini = 0.198<br/>samples = 9<br/>value = [8, 1]<br/>class = [0. 1.]>, fillcolor="#e89152"] ;
757 -> 767 ;
768 [label=<gini = 0.0<br/>samples = 7<br/>value = [7, 0]<br/>class = [0. 1.]>, fillcolor="#e58139"] ;
767 -> 768 ;
